6913 50
Harry -0.319739 0.065377 0.100538 -0.065104 0.628361 0.248290 -0.573304 -0.751860 -0.364089 0.204062 -0.075857 -0.221976 -0.815107 0.153726 -0.700832 -0.332173 -0.464358 -0.249906 0.079225 -0.020251 -0.271066 -0.167776 -0.492594 0.256509 -0.226555 -0.439659 -0.253449 -0.585722 -0.289544 0.046983 -0.215461 -0.200823 -0.044159 -0.096866 0.147767 0.343078 -0.374912 0.342693 -0.318042 -0.571309 -0.423851 -0.040099 -0.739367 -0.143992 -0.716593 0.020111 -0.326631 -0.424932 -0.215778 -0.396067
Potter -0.730669 0.180238 -0.094254 -0.129792 0.798453 0.293422 -0.345764 -0.115284 -0.500049 0.151092 0.145619 -0.537892 -0.746030 -0.334142 -0.629278 -0.898247 0.316559 -0.558265 0.778455 -0.237446 -0.376248 -0.549593 -0.545679 0.638880 -0.495475 -0.205875 -0.441451 -0.546791 -0.126354 -0.160121 -0.190985 0.030147 0.064150 -0.356382 -0.737973 0.312479 0.046583 -0.250518 0.324032 -0.402655 -0.357047 -0.477012 -0.024300 -0.699339 -0.038651 0.027165 -0.202656 -0.404794 -0.414833 -0.686934
and 0.068136 -0.008926 -0.306991 -0.409486 0.662173 0.052720 -0.397851 -0.203039 -0.589172 0.341927 -0.071321 -0.451508 -0.586198 0.124724 -0.346733 -0.449444 -0.271671 -0.274424 0.279796 -0.090002 0.082103 -0.376594 -0.678175 0.186687 -0.295873 -0.086383 -0.298530 -0.471490 0.018627 -0.011386 -0.157097 -0.140507 -0.095816 -0.278843 0.163863 -0.151990 -0.703635 -0.065248 -0.022179 -0.386503 0.067662 -0.014721 -0.507832 -0.024240 -0.690738 0.307375 -0.110704 -0.352269 -0.383897 -0.138710
the 0.349152 -0.179271 0.152067 -0.392645 0.456109 0.258812 -0.408639 -0.419148 -0.211173 -0.058226 -0.344203 -0.000030 -0.724910 -0.005202 -0.657574 -0.201115 0.092096 -0.003878 0.568966 -0.126005 -0.515903 -0.361721 -0.655516 0.449353 0.005726 0.027128 -0.024697 -0.096138 0.766779 0.034424 -0.351648 -0.441315 -0.774726 -0.467066 -0.345228 0.117211 -0.774231 -0.226424 -0.425072 -0.854092 -0.108688 -0.175761 -0.378515 0.067962 -0.397274 -0.294394 -0.396963 -0.317949 -0.615422 -0.174999
Sorcerers -0.267405 -0.114630 -0.001966 -0.040334 0.631491 0.360441 -0.027821 -0.038694 -0.216277 0.146614 0.245260 -0.374582 -0.748459 -0.486838 -0.616697 -0.338958 -0.091555 -0.338009 0.453512 0.258875 -0.282931 -0.485786 -0.731486 0.049774 0.101060 -0.197557 0.551091 -0.285920 0.196467 0.141034 -0.514524 -0.367624 -0.003718 -0.280393 -0.465165 -0.097804 -0.997300 0.294033 0.099978 -1.024413 -0.094854 -0.492958 -0.260446 -0.014936 -0.541133 -0.551547 -0.616116 0.188973 -0.435080 -0.201515
Stone -0.205573 0.064174 -0.131964 -0.273359 0.431827 0.590159 -0.309835 -0.402138 -0.525622 0.188831 0.241512 -0.666180 -0.930097 -0.164838 -1.120001 -0.312146 0.333053 0.202624 0.494358 0.178746 -0.605015 0.025661 -0.450155 0.083326 0.138526 0.088884 -0.231016 -0.537617 0.142547 -0.119451 -0.466242 -0.710844 -0.313121 -0.652563 -0.402293 -0.130127 -0.525182 0.062736 -0.017155 -0.675627 -0.819226 -0.215425 -0.515622 -0.785754 -0.508014 -0.374632 -0.714194 -0.429920 -0.508468 -0.443571
CHAPTER -0.203599 0.328142 -0.273735 0.265746 0.459755 0.302213 -0.004967 -0.559606 -0.101980 0.606134 -0.284065 -0.142818 -0.829591 -0.302020 -0.362274 -0.347020 0.129779 -0.026582 0.585619 0.004162 0.053807 0.138246 -0.522053 0.273233 0.241475 0.030993 -0.036520 -0.032344 -0.407314 -0.130266 0.167832 0.164478 0.268279 -0.248293 -0.022877 -0.092162 0.039872 0.220103 0.237460 -0.674423 0.410843 -0.036142 -0.604171 0.323669 -0.134180 -0.213683 -0.091809 0.423528 0.054170 -0.357938
ONE 0.422786 -0.071531 -0.203693 -0.052012 0.646796 0.051723 0.531422 0.101884 -0.559374 0.170695 0.261912 -0.324861 -0.219072 -0.323014 0.117495 0.135944 -0.167905 -0.266064 0.598690 0.631082 0.328015 0.430943 0.310139 0.530644 -0.268784 0.224073 -0.202350 0.032768 0.003841 0.560245 0.162900 -0.336288 0.429363 -0.363317 0.276654 -0.330990 0.274451 -0.203149 0.203870 -0.373548 0.577189 0.165129 0.373252 0.138562 -0.338643 0.116550 0.458474 0.584281 0.028811 0.104446
THE -0.346265 0.559586 0.142000 0.356577 0.517655 0.408529 -0.384527 -0.276338 -0.031157 0.200056 -0.230428 -0.375561 -0.977586 0.330333 -0.454480 -0.375675 0.131434 0.002070 0.972768 0.044129 0.178844 -0.264694 -0.181077 0.279928 -0.042606 0.458384 0.048750 -0.494188 0.184950 0.225753 0.207232 0.151214 0.186592 -0.385139 -0.264959 0.209200 0.004499 -0.370307 0.461540 -0.626862 0.367069 0.617386 -0.251984 -0.388673 -0.222874 0.292050 -0.650727 -0.049784 -0.525417 0.042005
BOY -0.017222 0.680210 0.324115 0.584762 0.627504 0.543369 0.407263 0.139635 0.434754 0.158978 0.532974 -0.491840 0.030671 -0.332831 -0.132848 0.387330 -0.152710 -0.272207 -0.008695 -0.003664 0.439800 -0.389922 0.079228 0.093540 0.147194 -0.027508 -0.321293 0.492029 0.015077 0.181714 -0.143940 0.365800 0.186947 -0.114253 0.158244 0.426530 -0.215701 -0.050109 -0.137348 0.180115 0.208176 -0.247707 0.073962 -0.183571 -0.311916 0.224815 0.108119 0.478066 0.090045 0.452536
WHO -0.178841 0.572847 0.559143 0.485004 0.601997 0.567159 -0.416227 0.121415 0.233510 -0.232105 -0.267294 -0.402239 -0.528836 -0.163322 -0.320513 -0.276444 -0.226918 -0.003135 0.333771 -0.362202 0.129652 -0.198954 0.155433 0.015189 -0.168765 0.667923 0.366978 -0.054318 0.473477 0.489332 -0.136326 -0.292006 0.140304 -0.163442 0.369311 -0.037690 -0.342478 0.535301 -0.416429 -0.575205 -0.246331 0.265095 0.452305 0.444477 0.293193 0.276953 -0.159417 0.194720 0.316178 0.159969
LIVED 0.469735 0.028576 0.202015 -0.060243 0.251469 0.730602 0.537502 0.161450 -0.043434 0.076863 0.209378 0.471175 0.305664 0.207067 0.111407 0.710270 0.304596 0.097482 0.786204 0.472831 -0.083901 0.595560 0.522242 0.033590 0.024952 0.256377 0.221661 -0.212234 0.159866 0.220285 0.322029 0.531951 0.704315 0.351004 0.206131 0.409616 0.099480 0.620922 0.103955 -0.273639 0.396925 -0.178565 -0.084162 0.396853 0.323879 0.726781 0.370203 0.105456 0.327986 -0.257375
Mr -0.488697 -0.276305 -0.581092 0.512067 0.791863 0.137813 -0.471156 -0.775179 -0.467782 -0.278837 0.168555 0.189310 -0.755582 -0.138556 -1.079312 0.065999 0.022515 -0.502925 1.027481 -0.051229 -0.407180 -0.612782 -0.485841 0.135769 -0.287503 -0.228833 -0.249706 -0.422961 -0.916665 -0.372983 -0.331207 -0.307121 0.483301 -0.005746 -0.271065 0.347365 -0.029359 -0.066502 -0.103997 -0.446938 -0.210169 -0.408121 -0.076848 -0.685377 -0.027611 -0.262045 -0.246488 -0.177627 -0.127426 -0.347293
Mrs -0.356275 -0.028670 -0.814920 -0.424066 0.405753 0.388713 -0.287704 -0.047890 -0.620419 -0.206601 -0.370138 -0.127165 -1.035752 -0.344452 -0.816931 -0.088331 0.119076 -0.175628 1.087019 0.031945 -0.165736 -0.523155 -0.451226 0.095887 -0.096317 0.408456 -0.444039 -0.629008 -0.638607 -0.023762 -0.319949 -0.130413 0.059612 -0.160895 -0.599531 0.115399 0.224016 -0.047445 -0.166578 -0.177612 -0.292142 0.322764 -0.568061 -0.769153 -0.225691 0.025669 -0.053303 -0.567515 -0.148625 -0.186278
Dursley -0.331304 0.201935 -0.016636 -0.358490 0.307781 0.669860 -0.137297 -0.491062 -0.422032 0.219041 -0.465436 -0.188010 -1.128251 0.103115 -0.693539 -0.101994 0.192614 -0.623052 0.514921 -0.154059 0.142935 -0.473130 -0.496462 0.533276 -0.467842 -0.439574 0.177514 -0.135123 -0.800011 -0.512791 -0.868008 -0.040649 0.159434 -0.092345 -0.538153 0.201163 -0.128976 -0.104292 -0.283212 -0.558921 -0.717423 0.512743 -0.838537 -0.761109 0.116415 0.104088 -0.119617 -0.130823 -0.314882 -0.451648
of -0.294228 -0.043073 -0.133782 -0.292278 0.421177 0.402040 -0.069612 -0.468016 -0.279739 -0.619657 0.252802 0.099489 -0.573760 -0.327702 -0.263607 0.000192 0.143406 -0.476816 0.905651 -0.130406 0.179785 -0.061450 -0.814281 -0.076756 0.018338 0.271029 0.129065 -0.303749 0.184291 -0.085791 0.417925 -0.708376 -0.485231 -0.584693 -0.529469 -0.266078 -0.877861 -0.138602 -0.274421 -0.835933 0.163827 -0.057115 -0.167544 -0.216421 -0.219985 -0.618886 -0.229929 -0.030838 -0.740435 -0.099589
number -0.271423 -0.025138 -0.200573 -0.527605 0.916755 0.342605 -0.430655 -0.333396 -0.555832 -0.480357 -0.163152 -0.123249 -0.403957 -0.158016 -0.513080 -0.269822 -0.010487 -0.802752 0.049968 -0.254445 -0.080205 -0.282328 -1.064510 0.213310 -0.108274 0.061987 0.135705 -0.133402 -0.259380 0.379486 -0.115600 0.012894 -0.182766 -0.699170 -0.065705 -0.158804 -0.005079 -0.132380 0.214355 -0.985858 -0.032749 -0.157455 -0.295002 -0.212299 -0.525888 -0.253771 0.204422 0.194799 -0.194448 -0.376695
four -0.083203 -0.561519 -0.849718 -0.296823 0.638421 0.433353 -0.225288 -0.262588 -0.296277 0.008252 -0.287496 -0.356310 -0.570946 0.114368 -0.324585 -0.388794 -0.191568 -0.224592 0.474009 0.104045 0.088098 -0.368181 -0.705775 -0.171439 0.004010 0.487375 -0.216540 -0.117717 -0.606955 0.232200 0.027128 -0.414453 -0.476305 0.034986 0.026652 -0.066618 -0.424088 -0.281080 -0.256115 -0.648082 0.230362 -0.048930 -0.734560 -0.149581 -0.602132 -0.245414 -0.075531 -0.234094 -0.471683 -0.119779
Privet 0.179694 -0.603511 -0.078261 0.190469 0.575801 0.872268 -0.180947 -0.402083 0.097919 -0.096923 -0.640920 -0.348434 -0.620606 -0.162096 -0.499586 -0.244734 0.103386 -0.185691 0.455722 -0.388791 -0.713107 -0.242970 -0.619947 -0.024897 0.187220 -0.186472 0.308527 -0.261527 -0.126749 -0.161926 -0.202559 -0.528439 -0.246743 -0.225829 0.125013 -0.573850 -0.575749 0.476325 0.436802 -0.619579 -0.651783 -0.314804 -0.881420 -0.064513 -0.763829 -0.459122 0.138827 0.344617 -0.596005 0.259602
Drive -0.313576 -0.122448 0.087167 -0.035205 0.335937 0.449313 -0.375292 -0.040881 -0.189195 -0.423474 -0.484392 -0.056823 -1.316186 0.409345 -0.566643 0.160547 0.119318 -0.590181 0.592179 0.138058 -0.562253 -0.268195 -0.617892 0.117163 -0.250446 -0.144828 0.246948 0.013806 -0.415992 -0.237563 0.189061 -0.357718 0.166121 -0.146709 0.245773 -0.212034 -0.429912 -0.133022 0.053942 -0.531143 -0.515953 0.249763 -0.600884 -0.273369 -0.288213 -0.650802 -0.132603 -0.532363 -0.389453 -0.718527
were -0.708768 0.222694 -0.501075 -0.235412 0.583088 0.615224 -0.289845 -0.414169 -0.450123 -0.074421 -0.110287 -0.130218 -1.139285 -0.114907 -1.024964 -0.626359 -0.163636 0.181657 0.124449 -0.178031 0.352023 -0.372942 -0.732466 0.016986 -0.078679 0.340530 -0.874563 -0.451615 -0.496543 -0.188548 -0.089090 -0.073115 -0.515089 -0.137905 0.153038 -0.230784 -0.718675 -0.503156 -0.212075 0.047927 0.201177 0.071641 -0.202154 -0.008787 -0.076711 -0.290261 -0.384461 -0.202396 -0.450578 0.260713
proud -0.184821 -0.380927 -0.315810 -0.256962 0.441504 0.486561 -0.145840 -0.139917 -0.360675 0.314603 -0.329450 -0.283144 -0.714448 -0.461128 -0.700759 -0.589100 -0.301090 -0.051913 0.248657 0.342588 -0.597163 0.183200 -0.412510 -0.189303 0.117535 0.145101 -0.219757 -0.042864 0.069164 -0.105002 -0.338443 -0.148601 0.053317 -0.220789 0.049845 -0.190296 -0.385900 0.222043 0.253561 -0.585362 0.049875 -0.254702 -0.750890 -0.231319 -0.362026 -0.036956 -0.437128 -0.260405 -0.477521 -0.176557
to -0.344445 -0.082268 -0.123881 0.170724 0.598073 0.213330 -0.325304 0.078697 -0.240142 0.512804 0.203672 -0.709071 -0.581286 -0.117378 -0.314651 -0.114180 -0.432958 -0.215972 0.494391 -0.502926 0.093431 0.065042 -0.784560 0.180650 0.114878 -0.311978 -0.410797 -0.634947 0.148340 -0.553703 -0.427006 -0.013665 -0.020718 -1.038484 0.103097 -0.004368 -0.435651 -0.136249 0.003220 -0.667326 -0.342007 0.239424 -0.380269 -0.633559 -0.711231 -0.192077 -0.716440 -0.061860 -1.049195 -0.286494
say -0.389632 -0.016022 -0.007123 -0.139135 0.804601 0.188010 0.229186 -0.505303 -0.087699 0.425293 -0.220876 -0.648026 -0.997514 -0.534899 -0.749076 -0.793395 -0.085327 -0.426679 0.299030 -0.323191 -0.061604 -0.220352 -0.178557 0.259141 -0.284606 -0.231953 -0.511336 -0.415908 -0.470910 -0.449806 -0.469248 -0.393356 -0.009104 0.058299 -0.199866 0.170992 -0.537967 -0.033273 -0.375138 -0.564666 0.128455 0.174611 -0.417657 -0.014137 -0.649430 -0.481389 -0.810094 0.157103 -0.685657 -0.583214
that -0.250258 0.068708 -0.216809 -0.180194 0.299709 0.184904 -0.064878 -0.370845 -0.216874 0.105243 -0.264413 -0.562849 -0.953817 -0.487165 -0.828784 -0.424152 -0.028258 -0.257586 0.440455 -0.148288 -0.236895 -0.498270 -0.308945 0.106581 -0.101233 0.048984 -0.257581 -0.270838 0.076436 -0.024221 -0.027058 -0.278454 -0.084279 -0.089721 -0.070712 0.084048 -0.744085 0.151947 -0.178115 -0.810830 -0.587835 0.027261 -0.149807 -0.476831 -0.518557 -0.105215 -0.339817 -0.029200 -0.547014 -0.132901
they -0.267213 0.097110 -0.091321 -0.566714 0.255302 0.575435 -0.180302 -0.382611 -0.772170 0.128782 0.102944 -0.230276 -1.091101 0.225097 -1.489739 -0.141209 -0.792593 0.030298 0.575278 -0.104615 -0.044596 0.237331 -0.504471 0.059989 -0.532901 -0.284417 -0.516127 -0.445770 -0.584685 0.174045 -0.486443 -0.113077 -0.487004 0.350191 0.139545 0.341238 -0.176317 0.001999 -0.482828 -0.438901 -0.515403 0.083189 -0.915031 -0.185583 -0.243684 -0.506247 -0.508387 -0.245834 -0.246144 -0.279478
perfectly -0.580230 0.035436 -0.504308 0.350863 0.668779 0.160106 -0.215863 -0.430571 0.149113 -0.013196 0.140170 -0.041530 -0.506250 -0.135086 -0.231135 -0.264634 -0.176727 0.098207 0.159353 0.221923 0.287949 -0.212003 -0.706217 0.045946 -0.088942 0.082898 -0.524344 -0.576658 -0.780711 0.456947 0.198248 -0.143904 -0.162947 -0.310470 -0.196419 0.025319 -0.198589 -0.123049 0.273567 -0.205851 -0.216364 -0.367653 -0.673521 -0.453118 -0.306790 -0.279964 0.078351 -0.179132 -0.438167 0.088618
normal -0.108256 0.277665 -0.054135 0.099794 0.168242 0.247983 -0.193405 0.175081 -0.467869 0.485433 -0.222507 -0.657172 -0.705267 -0.302836 -0.792935 -0.103329 -0.427863 -0.322331 0.028632 -0.179013 -0.249440 -0.406855 -0.391451 -0.180577 0.436943 -0.042171 0.110565 -0.804649 -0.030365 -0.196026 -0.209042 -0.232645 0.129554 -0.613302 -0.086895 0.019359 0.021569 0.172322 0.040055 -0.673478 -0.257240 -0.040533 -0.429127 -0.156131 -0.723857 0.230668 0.075133 0.137401 -0.900664 -0.255255
thank 0.102715 -0.054851 -0.079703 0.365579 0.061433 0.185270 -0.414034 -0.292909 0.134528 0.148364 0.414305 -0.201428 -0.106319 -0.424918 -0.275974 -0.609668 -0.258276 -0.568273 0.697487 0.152650 -0.462191 -0.134387 -0.269801 0.028926 -0.221010 0.320948 0.090039 -0.595901 0.234571 0.173518 0.191169 0.008468 -0.076048 -0.045253 -0.502182 -0.556084 0.117035 -0.020851 -0.407066 -0.492285 -0.192595 0.111629 -0.742130 -0.332572 -0.182854 -0.408317 0.020949 -0.215920 -0.831329 -0.241955
you -1.136210 -0.254636 -0.305084 0.100321 0.806831 0.202696 -0.011380 -0.230239 0.088255 0.014174 0.045806 -0.794835 -0.711394 -0.284300 -0.909315 -0.846972 -0.077715 0.138402 0.520692 0.186738 -0.358501 -0.228976 -0.784309 0.111862 -0.312853 -0.340698 -0.546562 -0.362831 -0.339203 -0.154796 -0.070444 -0.286803 0.227829 -0.422790 -0.172633 0.319204 -0.108688 0.093942 -0.076117 -0.318276 -0.341493 0.199880 -0.039060 -0.176805 -0.459257 -0.477937 -0.845889 -0.371313 -0.771397 -1.006893
very -0.523671 0.097966 -0.322298 0.041671 -0.069843 -0.056352 0.214806 -0.190990 0.101331 -0.152065 -0.468757 -0.210323 -1.182856 -0.029376 -0.821676 -0.080670 -0.355815 -0.308252 0.461951 -0.045477 0.127864 -0.580512 -0.590524 0.249896 -0.017573 0.047020 -0.355583 -0.415833 0.136852 0.541402 0.024640 -0.503594 -0.125907 -0.119610 0.124957 -0.055154 -0.692590 -0.043943 0.167082 -0.855268 -0.279751 -0.701035 -0.199764 -0.161896 -0.759688 -0.185778 -0.703200 -0.217388 -0.792241 0.544856
much -0.160351 0.421571 -0.085617 -0.597716 0.346717 0.736705 -0.099140 -0.048669 -0.142795 0.452203 -0.431413 -0.717292 -1.049079 -0.050161 -0.772552 -0.966876 -0.011042 0.296446 0.176759 -0.087617 0.046303 -0.284034 -0.259069 -0.334350 -0.190711 -0.320618 -0.369897 -0.223861 -0.275751 -0.398564 -0.516553 -0.156037 -0.114638 -0.134037 -0.126574 0.071132 -0.680416 0.151379 -0.613264 -0.982859 0.025937 -0.172157 -0.620953 -0.273318 -0.910604 -0.044757 -0.518257 -0.085460 -0.631237 -0.493732
They 0.086143 -0.431765 -0.208823 -0.007814 0.342621 0.397084 -0.389451 -0.336510 -0.633885 0.219242 -0.448947 -0.497826 -0.659126 0.190822 -0.934134 -0.181913 -0.564953 0.270794 0.651425 -0.361510 0.003870 0.138833 -0.506425 -0.383848 -0.072697 -0.361719 -0.018916 -0.659458 -0.323166 -0.021300 -0.050654 -0.195007 -0.604434 0.229871 -0.012283 0.171679 -0.747696 0.042907 -0.235484 -0.843398 -0.557389 0.332087 -0.747452 -0.285049 -0.549979 0.086891 -0.132403 -0.121020 -0.455968 -0.270154
last -0.075143 0.018499 0.018110 -0.424207 0.498581 -0.024684 -0.165077 -0.277575 0.049716 -0.442793 -0.523381 -0.255615 -0.925884 0.159113 -0.278212 -0.505446 -0.357986 -0.225373 0.852452 -0.066462 -0.185454 -0.172766 -0.475608 -0.123234 -0.718155 0.524071 -0.724453 -0.537292 0.146507 -0.288031 0.291445 -0.551756 -0.215793 -0.285389 -0.471871 0.170414 0.088216 -0.054307 -0.456185 -1.256333 -0.385628 -0.385037 -0.500458 -0.118782 -0.646679 0.000326 -0.188045 -0.090053 -1.005295 -0.084918
people -0.319492 -0.000896 -0.653637 -0.232269 0.409345 0.628485 0.235237 -0.236004 -0.030547 -0.563630 -0.169454 -0.322865 -0.907082 -0.107344 -0.753317 -0.628677 -0.403034 0.123137 0.457144 -0.223305 -0.054625 -0.061165 -0.608699 -0.074530 -0.031562 -0.118681 -0.082494 -0.377081 -0.315233 0.155747 -0.042199 -0.599864 -0.565701 -0.463980 0.172675 -0.011964 -0.732809 0.141704 -0.189374 -0.748968 -0.493688 0.063203 -0.127267 -0.208721 -0.494877 0.259870 -0.459677 -0.165465 -0.560704 -0.111389
youd -0.097694 0.453017 -0.460102 -0.418485 0.428575 0.164779 -0.020570 -0.507641 0.250166 -0.138104 0.293803 -0.669227 -0.759707 -0.581206 -0.896451 -0.118320 0.004028 -0.243735 0.644934 -0.239982 -0.259176 -0.162486 -0.155747 -0.083503 -0.281900 -0.035475 -0.734364 -0.793697 -0.102396 -0.007182 0.078298 0.399574 -0.016613 -0.543586 0.126685 0.325219 -0.577503 -0.058341 -0.276248 -0.772155 -0.238640 0.099804 -0.736284 0.021537 -0.250409 -0.553582 -0.142943 -0.421223 -0.257643 -0.734241
expect -0.147221 0.542411 -0.464000 0.046138 0.572651 0.556183 -0.029909 -0.264719 -0.074658 0.236270 0.200713 -0.391416 -0.731697 -0.421914 -0.241183 -0.821788 -0.122305 -0.262594 0.174685 0.062395 -0.074512 -0.073051 -0.166801 0.055751 -0.301528 0.410518 -0.758244 -0.239292 -0.151860 -0.153063 -0.148342 -0.446408 -0.071127 -0.146643 -0.030052 0.099157 -0.929194 0.089359 -0.312377 -0.666714 0.058510 -0.239203 -0.630067 -0.635196 -0.166313 -0.084027 -0.385199 -0.154487 -0.760865 -1.066088
be -0.484942 0.469660 -0.273161 -0.118136 1.072456 0.405453 0.093109 -0.168677 0.619217 -0.085309 0.073084 -0.762666 -0.758819 -0.649717 -1.146910 -0.565981 -0.326632 -0.628456 -0.220707 0.425410 0.165665 -0.542533 -0.426923 -0.094824 -0.090421 -0.177818 -0.488414 -0.282852 -0.286590 0.438465 -0.277869 -0.251582 -0.191136 -0.415359 -0.490611 -0.384178 -0.274461 0.276374 -0.592716 0.303985 -0.161193 0.415068 -0.238099 -0.577410 -0.734273 -0.496955 -0.963363 -0.161484 -0.691295 -0.522183
involved -0.387177 -0.091994 -0.597106 0.067455 0.171591 0.032347 0.039610 0.013746 0.093468 0.324375 -0.429950 -0.111441 -0.710537 -0.064091 -0.437206 -0.454449 -0.198089 -0.326657 0.121351 -0.211807 -0.061159 -0.652450 -0.604013 0.618188 0.368127 0.006617 -0.034067 0.040667 -0.604218 0.125890 -0.004208 0.074253 -0.105783 -0.649195 0.032734 -0.174809 -0.212059 -0.186985 -0.140969 -0.565263 0.309667 -0.021887 -0.501518 0.294418 0.038133 -0.273028 -0.156514 0.111904 -0.434024 -0.547895
in 0.335027 0.109077 -0.205873 -0.479801 0.369071 0.083173 0.028453 -0.182808 -0.024772 -0.232106 -0.155023 -0.399965 -0.980553 0.118114 -0.263846 -0.147343 0.079752 -0.012483 0.546671 0.136862 -0.141097 -0.076478 -0.753135 -0.055567 0.052205 0.266811 0.043562 -0.964022 0.075178 -0.388993 -0.094822 -0.534211 -0.551171 -0.526699 -0.443129 -0.029544 -0.863187 -0.270857 -0.221793 -0.271150 -0.284084 -0.152087 -0.632242 0.029255 -0.131174 0.310474 -0.294764 0.223737 -1.281276 -0.288854
anything -0.512708 -0.243996 -0.118143 0.023380 0.407134 0.669862 -0.203523 -0.460383 -0.233661 0.209892 -0.130159 -0.531149 -0.818594 -0.252632 -0.908866 -0.787257 -0.214495 -0.464822 0.075731 -0.205451 -0.424468 -0.486866 -0.250597 0.169421 -0.378001 -0.196204 -0.191633 -0.352561 -0.150479 0.129690 -0.270355 -0.193046 -0.020655 -0.019710 -0.239828 0.358049 -0.635621 0.539037 -0.234493 -1.088278 -0.762343 0.144406 -0.774927 -0.436695 -0.587980 -0.332529 -0.668292 -0.233125 -0.606756 -0.866121
strange -0.004137 0.005770 -0.731191 0.041307 0.221137 0.636320 -0.224329 -0.093878 -0.161324 -0.118428 -0.127152 -0.350951 -0.527787 -0.180648 -0.712756 -0.819891 -0.062420 -0.830928 0.332469 -0.130072 0.201820 -0.797422 -0.436860 -0.000733 -0.139885 0.208336 -0.282802 -0.458722 -0.514898 -0.112865 0.012582 -0.013678 0.057623 -0.354665 -0.076172 -0.123049 -0.530278 0.318205 -0.215865 -0.471916 0.077650 0.262329 -0.154143 -0.058585 -0.493084 0.062113 -0.134043 0.067918 -0.746713 -0.396763
or -0.344425 0.241372 -0.571035 -0.247624 -0.030983 0.299138 -0.530130 0.202694 -0.216221 0.254894 0.515094 -0.605810 -0.831150 -0.173856 -0.694915 -0.366886 -0.250474 -0.409613 0.471634 0.181456 0.470384 -0.269632 -0.642191 0.410415 -0.147326 -0.215331 -0.274142 -0.270495 -0.161102 0.548209 -0.621773 0.131618 0.042445 -0.056740 -0.343606 -0.041813 -0.377304 0.095848 -0.532974 -0.679331 -0.198287 0.005198 -0.355982 -0.180665 -0.402687 -0.072553 -0.600787 -0.134865 -0.472649 -0.040816
mysterious 0.069294 -0.344136 -0.398139 -0.112862 0.949615 0.521766 -0.312558 -0.225855 -0.452870 0.133162 0.335523 -0.475390 -0.542097 0.269270 -0.315653 -0.177061 0.013777 0.026429 0.100172 0.127283 -0.434782 -0.601623 -0.011642 0.020936 -0.363767 0.277976 0.058833 0.247092 -0.409162 -0.195613 -0.333255 0.087572 -0.408714 -0.338151 -0.237731 -0.166068 0.074359 0.161718 -0.013075 -0.917387 -0.049374 0.157109 -0.299640 -0.532442 -0.714875 -0.091733 0.020603 -0.190210 -0.076242 -0.334969
because -0.038250 0.133614 -0.179392 -0.207117 0.276846 0.020774 -0.003502 -0.322241 -0.019062 0.396308 -0.218202 -0.630956 -0.917948 -0.283111 -0.870735 -0.534338 -0.299236 -0.238877 0.319461 -0.152014 0.071090 -0.366093 -0.361295 0.112984 -0.198564 0.214574 -0.452100 -0.402406 -0.237760 -0.179836 -0.498361 0.183048 -0.113626 -0.192345 -0.160171 0.044499 -0.820295 -0.026303 -0.335956 -0.391379 -0.309009 -0.006231 -0.612069 -0.336379 -0.842638 -0.103312 -0.279827 0.433824 -0.950710 -0.208506
just -0.423969 0.422251 0.124220 -0.189305 0.291016 0.272421 0.028773 0.099446 0.052304 0.104137 -0.214657 -0.634186 -0.828551 -0.145342 -0.808924 -0.907678 -0.397977 -0.088919 0.163488 -0.692446 -0.056750 -0.294083 -0.487757 0.088067 0.023117 0.060349 -0.350381 -0.835882 -0.042290 -0.111473 -0.243925 -0.614779 0.120498 -0.518537 -0.213516 0.107619 -0.579313 0.261384 0.141327 -0.715168 -0.354548 -0.044514 -0.583671 -0.570094 -0.297827 -0.026559 -0.500932 0.205414 -0.761465 -0.265780
didnt -0.662701 -0.399048 0.408600 0.068810 0.474288 0.593731 -0.196229 -0.119186 -0.464261 0.408566 -0.201160 -0.796280 -1.372248 -0.206049 -0.328597 -0.670177 0.258891 -0.109751 0.662757 -0.063516 0.153320 -0.012175 -0.298819 -0.307592 -0.682092 -0.304846 -1.036549 -0.663875 -0.145911 -0.213365 -0.582086 -0.508267 -0.153229 0.078438 0.173307 -0.193189 -0.316933 0.458964 -0.533330 -1.127080 -0.018398 -0.341858 -0.190315 -0.122287 -0.303211 -0.177320 -0.699696 -0.414671 -0.983331 -0.370474
hold -0.353438 -0.040168 -0.149502 0.010260 0.375410 -0.096032 -0.320896 -0.258813 0.133723 0.439603 0.065537 0.029938 -0.811189 -0.017390 -0.429653 -0.151015 -0.258188 -0.596692 0.396556 0.053760 0.008646 0.094947 -0.322280 -0.499863 0.184051 -0.102524 0.239071 -0.754423 -0.455749 0.318053 -0.208466 -0.447711 -0.306382 -0.679883 -0.035887 -0.140767 -0.049510 -0.648529 0.083353 -0.450030 0.154508 0.121363 -0.562106 0.103947 -0.816164 -0.425749 -0.524581 -0.219940 -0.293601 -0.792343
with -0.112805 0.391287 -0.389870 -0.513955 0.437575 -0.086857 -0.266026 -0.323870 -0.085259 -0.043641 0.395409 -0.410176 -1.000900 -0.251193 -0.039759 -0.107735 0.041800 -0.032716 0.176084 -0.150329 0.216220 -0.382432 -0.962210 0.131934 0.287170 -0.068494 -0.293638 -0.632754 -0.483127 -0.005645 -0.009672 -0.269197 -0.192500 -0.307637 -0.317574 -0.330616 -0.501533 -0.438091 0.111582 -1.013034 0.330645 -0.012582 -0.306758 -0.094765 -0.593707 0.150266 0.114628 -0.201855 -0.450708 -0.005477
such -0.419397 -0.083843 -0.075660 -0.020204 0.181881 0.365892 -0.129553 -0.144429 0.035841 0.001314 -0.077815 -0.379581 -0.859753 -0.232436 -0.708397 -0.101604 0.207291 -0.205195 0.323705 0.380394 0.014322 -0.130081 -0.183599 -0.241955 0.009354 -0.089761 0.129358 -0.660636 -0.811920 0.072716 -0.273094 -0.420294 -0.039289 -0.534415 -0.449578 0.094326 -0.197075 0.228943 0.234015 -0.590480 -0.227865 0.112050 -0.860533 -0.044398 -0.633871 -0.230930 -0.441094 -0.132418 -0.816948 -0.262512
nonsense 0.084612 0.236969 -0.215421 -0.064675 0.053583 0.570854 0.387708 -0.011118 -0.368832 0.182879 -0.156112 0.195656 -0.741391 -0.643852 -0.853658 -0.230756 0.104997 -0.220289 -0.038430 -0.406820 0.025003 0.214628 -0.421159 0.299905 -0.225171 -0.306068 0.158478 -0.478518 0.365240 0.025195 -0.286016 0.028315 -0.164982 -0.445776 -0.112228 0.101958 -0.002905 -0.375438 -0.434685 -0.055744 -0.210496 0.231782 -0.372082 -0.380266 -0.619416 0.342453 -0.669270 0.396709 -0.352122 -0.177102
was -0.597102 0.362308 0.217646 0.144095 0.274825 0.724388 -0.190514 -0.491686 -0.195914 -0.214567 -0.278943 -0.123659 -1.571035 -0.392150 -0.772493 -0.247140 0.237239 -0.492903 0.174834 -0.136224 0.239602 -0.552374 -0.604733 0.397068 0.135067 -0.136738 -0.276976 -0.228602 -0.502726 0.042442 -0.122232 -0.309692 -0.503665 -0.721731 -0.070148 -0.455483 -0.804890 0.130391 -0.036852 -0.030417 -0.070288 -0.617679 0.199503 -0.036347 -0.595126 -0.281353 -0.101045 -0.392077 -0.775157 0.139054
director -0.465439 -0.101050 -0.220102 0.135484 -0.011356 0.405663 -0.444554 -0.038806 -0.303875 -0.118744 0.201639 0.203282 -0.100349 0.275534 -1.021122 0.051443 0.150432 -0.461134 0.168612 0.347885 -0.028413 -0.496201 -0.521264 -0.006208 0.068719 0.160816 0.218481 -0.423673 0.451203 0.110247 0.249924 -0.324530 -0.012724 -0.450973 -0.245187 -0.170275 -0.440313 -0.141091 -0.071255 -0.138340 0.444826 -0.283937 -0.453258 0.197269 -0.538895 -0.461259 0.072689 -0.316725 -0.309758 0.043719
a -0.125631 0.053742 -0.004388 -0.659560 0.438650 0.054651 0.286492 -0.154207 -0.180734 0.037096 -0.506120 -0.196442 -0.603614 -0.151940 -0.258311 -0.283319 0.081169 -0.551850 0.247876 0.090738 -0.131700 -0.395617 -0.302341 0.276663 0.282121 0.047536 -0.020150 -0.460783 -0.023647 0.535113 0.209389 -0.480592 -0.338739 -0.085469 -0.604412 -0.172036 -0.447153 -0.065618 0.027289 -0.606778 -0.086530 -0.077783 -0.434131 0.263391 -0.680004 -0.210201 -0.726916 -0.352389 -1.291006 0.056228
firm 0.193137 -0.022876 0.180647 -0.421853 0.778052 0.191083 -0.512319 0.084431 -0.318699 0.138464 -0.265393 -0.200617 -0.124774 0.322981 -0.059079 -0.176525 0.049797 -0.374975 0.143759 0.206144 0.346326 0.221690 -0.857670 0.135460 -0.433668 0.016156 -0.512112 0.027613 -0.195925 0.358816 -0.226819 0.083749 -0.273574 0.333624 -0.275735 -0.333163 -0.224549 -0.289971 -0.280515 0.092693 -0.307714 -0.302275 -0.458099 -0.011842 -0.012254 -0.055242 -0.451006 0.382243 -0.352725 -0.488379
called -0.283618 0.116476 -0.419927 -0.332318 0.624651 -0.159380 0.213978 -0.195516 -0.658060 0.463865 -0.016387 -0.387256 -0.851326 -0.279967 -0.406427 -0.028915 -0.101009 -0.125769 0.723541 -0.279017 0.006819 -0.691477 -0.489078 0.162896 -0.421637 -0.043113 -0.295892 -0.309763 -0.260713 -0.079353 -0.254312 -0.453823 -0.164282 -0.549576 -0.240233 0.203559 -0.612296 0.173998 -0.002288 -0.798640 -0.019902 -0.153935 -0.413774 -0.237685 -0.469879 -0.263928 -0.014738 -0.478661 -0.498236 -0.054086
Grunnings -0.456872 -0.238388 -0.399043 -0.140236 0.028231 0.128347 -0.363346 0.102975 -0.316951 0.439159 0.050349 -0.198364 -0.057853 0.076451 -0.022619 -0.221095 0.464753 -0.448628 0.075715 -0.186183 -0.102196 -0.338615 -0.614371 0.392134 -0.004233 0.031629 0.373854 -0.579450 0.368038 0.235313 0.010335 -0.470379 0.118418 -0.424838 0.116413 -0.316128 -0.054742 0.269424 0.341925 -0.255240 0.318525 -0.089513 -0.306936 0.050535 -0.514406 -0.007203 -0.302805 0.252726 -0.671342 -0.436121
which -0.042891 -0.362088 -0.295815 -0.271304 0.261517 0.163789 -0.080578 -0.437842 -0.226018 0.193476 -0.012969 -0.383812 -0.756030 0.238652 -0.775350 -0.049375 -0.238903 -0.589195 0.410776 -0.357022 -0.272913 0.048811 -0.671739 -0.185840 0.252902 0.257793 -0.044187 -0.361504 -0.229505 0.013850 0.012811 -0.199261 -0.340876 -0.098266 -0.159574 -0.202338 -0.719089 0.061099 0.192992 -0.318349 -0.041051 0.095550 -0.432504 -0.537450 -0.492086 -0.038765 -0.123770 0.031107 -1.026714 -0.112542
made 0.014055 0.247538 0.018886 -0.047761 0.322768 0.213916 -0.055635 -0.477281 -0.221942 -0.194108 -0.099460 0.050078 -1.233884 -0.258911 -0.563023 -0.147714 0.249359 -0.339262 0.597151 -0.482448 0.227716 -0.203834 -0.926634 -0.343282 -0.159296 -0.042860 0.096468 -0.843296 -0.414292 0.433533 -0.253178 0.069234 -0.532107 -0.527470 -0.322528 -0.145121 -0.665726 0.337208 -0.086549 -0.408686 -0.396860 -0.011791 -0.463315 -0.390866 -0.655254 -0.470413 0.025917 -0.562518 -0.623163 -0.124390
drills -0.409402 -0.447847 -0.401942 -0.064788 0.692604 0.406898 0.213308 -0.133140 -0.498764 -0.402048 -0.092316 -0.007026 -0.679646 -0.085473 -0.601585 0.175237 -0.269154 -0.318338 0.298210 0.384760 -0.114574 -0.370669 -0.429834 0.458741 0.020460 -0.461156 0.098245 0.074218 -0.238552 0.387267 0.336564 -0.354782 -0.208521 0.086654 -0.491511 0.284306 -0.665002 -0.034437 0.279789 -0.565018 0.001212 0.346128 -0.128617 -0.269817 -0.615616 -0.272781 0.085827 -0.357078 -0.783150 -0.380870
He -0.229596 -0.114593 0.075231 -0.338103 0.278885 0.203542 -0.503723 -0.502753 -0.413095 0.362926 -0.145487 -0.715725 -0.847313 0.534680 -0.680001 0.106563 -0.391439 -0.332179 0.246793 -0.192231 0.249368 -0.060628 -0.276474 -0.072546 -0.325447 -0.341387 -0.135028 -0.628061 -0.059118 0.093668 -0.167658 -0.248738 -0.182749 -0.139918 -0.172206 0.373155 -0.369316 -0.031161 -0.257460 -0.585031 -0.225979 0.148956 -1.023080 -0.492213 -0.950510 -0.053768 0.049501 -0.332249 -0.390563 -0.207956
big 0.502443 0.305596 -0.112387 -0.692641 0.572262 0.273097 0.347107 -0.510249 -0.194156 -0.287030 -0.064618 -0.456424 -1.229985 -0.235584 -0.450318 -0.225313 -0.489821 -0.460081 0.352750 -0.085948 -0.215784 -0.516181 -0.407589 -0.120773 0.284360 -0.090610 0.114149 -0.578755 -0.826581 -0.383989 -0.277214 -0.246491 -0.176734 -0.243643 -0.035322 -0.003090 -0.558922 -0.165712 -0.148057 -0.705152 -0.073306 0.596412 -0.504611 0.047279 -0.580313 0.107870 -0.266940 0.394122 -0.297457 -0.384788
beefy -0.126701 -0.141523 -0.023978 0.332585 0.030425 0.067539 0.418420 -0.048117 0.316077 0.330098 0.065540 0.231759 -0.051676 0.333057 -0.058930 -0.099428 -0.072763 0.080515 0.250901 -0.145318 0.112211 -0.227406 0.037796 -0.160868 0.138052 -0.206963 -0.548012 -0.143788 0.300747 0.506127 -0.023759 -0.457871 0.318875 0.194631 0.037265 -0.031377 -0.393827 -0.514310 0.128911 -0.323981 -0.244965 -0.102736 -0.090024 0.175350 -0.648387 -0.207992 0.015105 0.522855 -0.416870 -0.521272
man -0.561174 -0.173083 -0.065453 -0.222519 0.394340 0.433321 -0.195531 -0.017414 -0.331993 -0.072939 -0.387998 -0.364306 -1.043131 0.024356 -0.470058 -0.388389 0.166308 -0.376616 0.381087 -0.061108 -0.105517 -0.266025 -0.110406 -0.141561 -0.108540 0.409707 -0.499465 -0.809417 0.019643 -0.057600 0.246954 -0.336309 0.152254 -0.376657 -0.581005 -0.414593 -0.325425 0.127961 0.216583 -0.581997 -0.173044 0.086757 -0.518990 -0.402443 -0.664119 -0.283730 -0.263797 -0.150315 -0.363391 -0.165128
hardly -0.287819 -0.029157 0.181685 0.191694 0.788428 0.297638 -0.283943 -0.203863 -0.119543 -0.159928 -0.296044 -0.427581 -0.804115 -0.423073 -0.430579 -0.882077 -0.006125 -0.338836 0.395269 0.054117 0.011996 -0.371259 -0.469266 -0.093649 -0.382074 0.062498 -0.302229 -0.461575 -0.214456 0.195131 0.005910 -0.277931 -0.364382 -0.298845 -0.006350 0.431576 -0.005806 0.436801 -0.086569 -0.614250 0.109470 -0.349637 -0.313696 -0.395694 -0.510142 -0.740433 0.106572 -0.074009 -0.664542 -0.572660
any -0.036830 0.208094 -0.539661 0.078946 0.563921 0.141795 -0.192966 -0.119997 -0.748534 0.072351 -0.302589 -0.704449 -0.426021 -0.268787 -0.845704 -0.571377 -0.655992 -0.113728 0.435702 -0.001852 -0.176665 -0.562933 -0.192078 0.099295 -0.044118 -0.634755 -0.274501 -0.393095 0.382259 0.161232 0.062214 -0.639543 0.144253 0.009313 -0.570822 -0.022564 -0.470482 0.365366 0.044734 -0.831606 -0.545808 -0.057853 -0.694994 -0.186468 -0.524926 -0.612603 -0.230540 -0.149107 -0.637072 -0.814946
neck -0.019030 -0.197171 -0.551967 -0.254820 0.733001 0.138604 0.028890 -0.392810 -0.513998 0.192979 -0.356462 0.145255 -0.976431 0.173539 -0.125835 -0.234469 0.425415 0.263859 0.950314 0.039960 -0.221235 -0.861975 -0.375762 -0.260207 -0.218202 -0.405198 0.112068 -0.559911 -0.348787 -0.173397 -0.143733 -0.553222 -0.707721 -0.140617 -0.251940 -0.245498 -0.554463 -0.046643 -0.164580 -0.271388 0.043453 0.350968 -0.388991 -0.643460 -0.362668 0.231855 0.239480 0.180453 -0.697132 -0.686752
although -0.364481 0.355273 0.205889 -0.126696 0.030491 0.487987 -0.313721 -0.624443 -0.317445 -0.049714 -0.441474 -0.032809 -0.645591 -0.618790 -0.350291 -0.498000 0.007674 0.139929 0.653361 0.342281 0.110718 -0.196264 -0.460617 0.046241 -0.004057 -0.204800 -0.302652 -0.434432 -0.608472 0.221542 -0.483901 0.136462 -0.544366 0.053799 -0.042842 -0.373451 -0.318286 0.209785 0.128718 -0.581640 -0.304277 0.104350 -0.553713 -0.121994 -0.152926 0.239771 0.072188 0.332090 -0.745348 -0.092830
he -0.516018 0.166152 0.130711 -0.232050 0.367559 0.318780 -0.240754 -0.538460 -0.131587 0.166032 0.124792 -0.346113 -1.001969 0.032268 -0.976986 -0.439454 -0.284367 -0.473993 -0.078014 -0.170846 -0.290213 -0.308844 -0.215379 -0.031588 -0.535674 -0.384411 -0.077867 -0.286194 -0.129381 0.068368 -0.489741 -0.029347 -0.075165 -0.359967 0.227163 0.483046 -0.304561 0.441662 -0.305685 -0.431996 -0.105485 0.055679 -0.774427 -0.434288 -0.703103 -0.321290 -0.246282 0.057553 -0.541866 -0.640545
did -0.469653 0.261355 -0.035061 0.223733 0.469329 0.148967 0.044660 -0.226587 -0.596238 0.334845 -0.190209 -0.477807 -1.052088 -0.357153 -0.585120 -0.589454 -0.063989 0.058717 0.900537 -0.051758 -0.372196 -0.474495 -0.570802 -0.021582 -0.433422 0.044796 -0.824845 -0.588525 -0.208892 -0.334514 -0.517218 -0.283790 -0.745113 -0.074986 0.134185 0.029161 -0.328623 0.002056 -0.016326 -0.517982 -0.166684 -0.394202 -0.757339 -0.173191 0.120130 -0.912763 -0.607655 -0.072026 -0.742041 -0.417796
have -0.176121 0.020108 0.017573 -0.117482 1.054839 0.238067 0.332419 -0.071760 0.334135 0.333167 0.044922 -0.868090 -0.945964 -0.529959 -1.161473 -0.595543 -0.446953 -0.130675 -0.316545 -0.150828 0.119938 -0.248498 -0.663444 -0.219594 -0.447833 0.004732 -0.425623 -0.591475 -0.609622 0.165245 -0.338330 -0.479861 0.076944 0.405433 -0.317523 0.005865 -0.859682 0.029373 -0.256978 -0.304911 -0.229406 0.598094 -0.382420 -0.477868 -0.402164 -0.358239 -0.992034 -0.066426 -0.631436 -0.416681
large -0.060286 0.051244 -0.108177 -0.514081 0.343435 0.239529 -0.083212 0.044968 -0.092529 -0.424149 -0.427653 0.194092 -1.081929 0.311702 -0.167510 -0.095962 -0.357463 -0.362726 0.634917 -0.250387 0.038161 -0.280132 -0.618376 0.174701 -0.056954 0.259124 0.069919 -0.642874 -0.337745 0.057188 0.057018 -0.645661 -0.310842 -0.319017 -0.214449 -0.544266 0.126088 -0.155004 -0.117922 -0.760744 -0.059426 0.131493 -0.788661 -0.133612 -0.698212 -0.372030 -0.272379 0.565541 -0.682632 0.139980
mustache 0.109789 -0.375261 -0.581037 -0.359421 1.032122 -0.248912 0.076311 0.132669 -0.030848 0.012618 0.242266 0.259552 -0.481327 -0.028629 -0.316226 0.143741 0.294573 0.033506 0.146658 -0.333183 -0.304508 -0.242104 -0.476609 0.010972 -0.253718 -0.225291 0.067968 -0.657233 0.080941 0.268199 0.321839 -0.465233 -0.557111 -0.498798 -0.383410 -0.132854 -0.531181 0.130316 0.140987 -0.604704 -0.026445 -0.032358 -0.565657 -0.073366 -0.413471 0.292965 -0.308239 0.525291 -0.529939 -0.001556
thin -0.181380 -0.358591 -0.294350 -0.066644 0.431507 0.352925 0.000874 -0.658746 -0.492721 -0.064600 -0.462534 -0.276237 -1.182721 0.452136 -0.986401 -0.338161 0.201929 -0.302265 0.618247 0.513195 0.052101 -0.245891 -0.296167 -0.166186 -0.255672 -0.112377 -0.175474 -0.415470 -0.492383 -0.236188 0.249210 -0.851239 0.192828 0.232631 -0.392661 -0.196449 -0.558400 -0.167314 0.368916 -0.135066 0.338943 -0.234062 -0.128762 0.222720 -0.677923 -0.475449 0.021682 -0.259800 -0.545571 0.506092
blonde -0.049864 -0.305211 -0.068927 -0.122269 0.316548 -0.133635 0.281190 -0.190418 -0.274251 0.264714 -0.027286 -0.261722 0.008962 -0.158114 -0.555771 0.147367 0.443658 -0.020129 0.487549 0.340489 -0.270220 -0.386065 -0.359876 0.062256 0.175877 -0.107271 0.129142 -0.426466 -0.363605 0.586048 -0.169615 -0.247715 -0.068373 -0.401322 0.304201 -0.211775 -0.151127 -0.415948 -0.365995 -0.632488 -0.367124 0.600715 -0.103653 0.270652 -0.554801 0.009520 -0.218482 -0.086613 -0.513772 -0.009119
had 0.080279 0.482801 0.605182 -0.229036 0.435165 0.092237 -0.074616 -0.015133 0.350183 0.252884 -0.458587 -0.565400 -0.940842 -0.084253 -0.723711 -0.571962 -0.254233 -0.543201 0.207095 -0.495507 0.604314 -0.292129 -0.975436 0.052521 -0.306627 0.056436 -0.350856 -0.587790 -0.765742 0.190148 -0.412145 -0.662512 -0.103495 0.217710 -0.050841 -0.145938 -0.774603 -0.335481 -0.224343 -0.905269 -0.323255 -0.246049 -0.724130 -0.468482 -0.025644 -0.594574 -0.146924 -0.023055 -0.460600 -0.007648
nearly 0.053790 -0.176213 0.110973 -0.310935 0.653234 -0.001290 -0.306779 -0.348208 -0.276085 0.208593 0.119858 -0.568732 -0.632599 -0.214111 -1.048561 -0.244089 -0.509547 -0.070135 0.074839 -0.023833 -0.030857 -0.347588 -0.579759 -0.158300 -0.112087 -0.248836 -0.189206 -0.243404 -0.375401 -0.148621 0.191759 -0.005692 -0.496883 -0.346883 -0.132389 -0.097014 -0.420585 0.134363 0.307619 -0.366742 0.251094 0.091145 -0.470041 -0.262651 -0.551764 -0.056235 -0.018982 -0.145523 -0.788545 -0.468514
twice -0.264151 0.287271 -0.337437 0.141164 0.413295 -0.048464 -0.096864 -0.483549 -0.457357 0.323500 -0.134392 -0.120185 -1.155113 0.083253 -0.506607 -0.173460 -0.242383 -0.452131 0.509957 -0.239670 -0.426874 -0.298217 -0.378895 -0.237454 -0.107303 -0.272366 -0.144932 -0.174454 -0.121578 -0.140937 0.482110 0.119548 -0.194507 -0.204351 -0.330448 -0.199474 -0.131161 0.187180 -0.414271 -0.594990 -0.225858 -0.255020 -0.046790 -0.592263 -0.433958 -0.218769 0.053343 -0.199156 -0.622837 -0.510157
usual -0.457091 0.040941 -0.299314 -0.326819 0.270524 0.178677 -0.079263 0.030173 -0.407168 0.551268 -0.460889 -0.011273 -0.868950 0.251314 -0.685915 -0.329691 0.181268 -0.520536 0.476853 -0.080866 -0.004246 -0.500639 -0.578128 -0.297137 -0.445946 -0.351363 -0.078454 -0.575811 -0.014493 -0.172708 -0.210299 0.190350 -0.104715 -0.313491 -0.228765 -0.193815 -0.174994 0.220676 -0.366583 -0.338423 0.185891 -0.519130 -0.938586 -0.310797 -0.065117 0.135979 0.199038 0.266718 -0.413305 -0.319921
amount -0.134063 0.035328 -0.161022 0.286790 0.321036 0.042286 -0.288215 -0.033594 0.195973 -0.143700 -0.447807 0.153424 -0.298524 0.018683 -0.621558 0.327095 0.369507 -0.064762 0.142592 0.104948 -0.240830 -0.437234 -0.196955 -0.316009 0.413864 -0.003656 0.583379 -0.100267 -0.037073 0.064423 0.127173 0.388921 0.081458 0.416318 -0.069402 0.476640 -0.170324 0.115428 -0.119138 -0.462177 0.335415 0.534236 0.138681 -0.282229 -0.085952 0.083892 -0.396691 -0.298357 -0.346882 0.331033
came -0.031948 -0.136158 0.033456 -0.445266 0.417033 0.619211 -0.193030 -0.355024 -0.240652 0.334842 -0.095091 -0.053363 -0.823581 0.246338 -0.383207 -0.065408 -0.063924 -0.385758 0.575152 -0.232353 0.100876 -0.609513 -0.272303 0.157846 -0.679815 0.340581 -0.446407 -0.624785 -0.366683 0.439357 -0.684357 -0.537590 -0.565486 -0.833466 -0.017566 0.111915 -0.288272 -0.476634 -0.027794 -0.425280 -0.335725 -0.041854 -0.591322 -0.450785 -0.278756 -0.442591 -0.013652 0.057012 -0.444693 -0.195787
useful -0.072092 -0.001177 -0.576415 0.218049 0.662672 -0.071198 0.089891 -0.326448 -0.195537 0.319590 -0.037930 -0.675890 -1.145766 -0.393671 0.045724 0.161884 -0.159387 -0.189099 0.227858 -0.022826 -0.448088 0.048347 -0.024798 0.083044 -0.295265 -0.493129 -0.366716 -0.488862 0.237072 -0.100705 -0.216376 -0.057025 -0.158846 -0.294720 -0.254003 0.186899 -0.326390 0.063437 -0.401564 -0.537102 0.354859 0.024388 -0.615123 -0.286303 -0.119364 0.334833 -0.051390 -0.159955 -0.580735 0.042536
as 0.313550 0.310853 -0.223117 -0.106562 0.351438 -0.080520 0.411024 -0.570622 -0.134902 0.174740 -0.009467 -0.297068 -1.692278 0.118170 -0.687114 -0.730559 -0.340837 -0.137242 0.259795 0.160888 0.126369 -0.194039 -0.369752 -0.544144 0.014584 -0.447866 0.100275 -0.533257 -0.632882 0.316547 -0.515043 -0.226530 -0.920146 -0.282154 -0.128326 0.039289 -0.439280 0.444969 -0.301184 -0.513219 0.073745 -0.507082 -0.756362 -0.364998 -0.824983 -0.045387 -0.618583 0.188277 -0.124717 0.035084
she -0.482069 0.290508 0.229065 0.140590 0.483712 0.440194 -0.614298 -0.342577 0.241339 0.230689 -0.258771 -0.202743 -0.896143 0.534710 -0.811422 -0.348688 -0.527502 -0.111860 0.438428 0.074186 -0.483136 -0.064363 -0.598576 -0.061622 -0.248714 -0.302656 -0.121775 -0.567553 -0.697996 -0.322179 -0.415861 -0.182071 -0.089432 0.035120 0.039075 0.188191 -0.242818 0.342516 -0.228916 -0.338214 -0.190473 -0.349385 -0.499939 -0.552597 -0.716044 -0.200515 -0.428881 -0.303094 -0.631266 -0.565823
spent 0.240143 0.096216 0.174333 -0.178677 0.751361 -0.063476 -0.311731 -0.265786 0.038371 -0.029663 -0.203120 -0.481522 -0.881106 -0.319072 -0.747612 -0.962809 -0.123590 0.010566 0.409702 0.121058 -0.259540 -0.587344 -0.385637 -0.359459 -0.524819 0.208761 0.031011 -0.745706 -0.418000 0.091695 0.068776 -0.332444 -0.330884 -0.337496 -0.175219 0.219081 -0.218283 -0.138762 -0.048912 -0.330212 -0.186396 -0.182632 -0.259552 -0.228755 -0.151495 -0.346986 -0.550623 0.412472 -0.565433 -0.189403
so -0.115475 0.126708 0.135445 -0.258677 0.509916 0.132991 -0.015526 -0.270579 -0.175621 0.156720 -0.409616 -0.478874 -1.339893 -0.355772 -0.792324 -0.241643 -0.263995 -0.223605 0.204616 -0.423206 -0.222512 -0.056398 -0.470257 -0.159846 -0.177561 -0.056533 -0.290343 -0.325447 -0.458386 0.146259 -0.355592 0.128883 -0.415608 0.023159 0.530136 0.171277 -0.699569 0.367682 -0.094776 -0.701572 -0.219106 -0.386387 -0.394510 -0.351261 -0.727679 0.018615 -0.633445 -0.198548 -0.504714 -0.361252
her -0.121874 0.077724 0.213920 -0.471926 0.526351 0.048243 -0.663512 -0.195006 0.513518 0.462284 -0.571771 -0.301298 -1.171143 -0.152842 -0.132609 -0.384792 -0.281697 0.428579 0.719805 -0.405927 -0.514765 -0.360278 -0.598538 0.005269 -0.100920 -0.394075 -0.109565 -0.860281 -0.269080 -0.134822 -0.025701 -0.406816 -0.030426 -0.483441 -0.315639 -0.139829 -0.230455 -0.380530 0.060630 -0.466451 -0.094092 0.057145 -0.627523 -0.265476 -0.762803 -0.091937 -0.095537 -0.090378 -0.269014 0.224099
time -0.433508 -0.146914 -0.368079 -0.029380 0.750907 -0.363160 0.196853 -0.133925 -0.113103 -0.315785 -0.263875 0.026863 -1.081679 -0.167428 -0.843103 -0.715089 -0.250674 -0.245032 0.220230 -0.517852 -0.304262 -0.280994 -0.516429 -0.214068 -0.039691 -0.185142 -0.609802 -0.794786 -0.298574 0.119231 0.056340 -0.406385 -0.241854 -0.387682 -0.105081 0.194192 -0.391708 0.234355 -0.311569 -0.841421 -0.636377 0.217455 -0.471365 -0.099354 -0.495642 -0.015348 -0.215515 0.357606 -1.170240 -0.120385
craning 0.017720 0.330671 -0.007197 0.082802 0.738307 0.091197 -0.463766 0.165169 -0.558114 -0.189073 -0.533993 -0.205462 -0.014907 -0.234837 -0.456811 0.097660 -0.101621 0.061197 0.577272 -0.152581 -0.323284 0.206880 -0.175913 0.445507 -0.279657 -0.281083 -0.359188 0.084329 -0.029578 -0.084966 0.158179 0.082982 0.377806 -0.270495 -0.330832 0.267477 0.011465 -0.533912 0.206230 -0.770815 -0.162265 -0.391658 -0.441956 0.289078 -0.102294 -0.193000 -0.453197 -0.393374 -0.552076 -0.514466
over -0.127450 0.200930 -0.447649 0.054982 0.662159 0.188326 -0.258640 -0.666920 -0.344726 0.207786 -0.275435 -0.323878 -0.916957 0.074253 -0.348404 -0.055847 0.241624 0.066800 0.461492 -0.638342 0.152049 -0.260349 -0.246622 -0.129764 -0.343198 -0.349041 0.206667 -0.765094 0.155648 -0.278982 -0.201377 -0.583482 -0.992227 -0.676631 -0.082700 0.249237 -0.965647 -0.317402 0.468647 -0.527424 0.229515 -0.315267 -0.328487 -0.448451 -0.899686 0.383508 -0.170492 -0.387781 -0.311389 -0.102023
garden 0.056138 0.233590 -0.523339 -0.244276 0.399689 0.034870 -0.385874 -0.159565 -0.280887 -0.029964 -0.207845 -0.467122 -0.621092 0.182842 -0.619996 0.298202 -0.238059 -0.317406 0.633502 0.006366 0.330382 0.013945 -0.528446 -0.102194 -0.443292 -0.374295 0.357330 -0.310183 0.000496 -0.302753 0.203611 0.032424 -0.210347 -0.435985 0.208398 -0.422371 -0.081330 -0.228040 -0.277308 -0.888906 -0.400783 0.090767 -0.144045 -0.390775 -0.674487 0.241781 -0.477563 0.198062 -0.021094 -0.152838
fences -0.222291 0.503986 -0.240809 -0.148558 0.343845 -0.306398 -0.198241 0.094999 -0.258648 -0.028913 0.301516 -0.164020 -0.012476 0.065390 -0.061315 -0.431643 -0.346546 -0.342767 0.221656 -0.329569 0.157318 0.298788 -0.199223 0.228008 -0.063325 0.009309 0.195546 -0.403803 0.487516 0.393767 0.556028 -0.323147 0.331607 -0.043585 0.399202 0.140451 0.385547 -0.101873 0.149654 -0.571346 -0.406710 0.341345 -0.194439 -0.425907 0.168993 0.541463 -0.140933 -0.069192 -0.474146 0.113324
spying 0.179582 -0.100421 -0.358266 -0.407334 0.429004 0.001323 -0.094433 -0.731589 -0.399258 0.117042 -0.225611 -0.244383 -0.603178 0.072015 -0.661784 -0.014820 -0.339602 0.131752 0.392410 0.170919 0.230280 -0.300701 -0.597266 0.240165 0.105481 0.137733 0.126068 -0.322440 -0.282515 -0.317757 -0.092449 0.170986 0.255731 -0.296905 -0.455590 0.188081 -0.172114 -0.203761 0.206690 -0.711413 0.171898 -0.046600 0.157462 0.143474 -0.549785 0.315602 0.081822 0.125377 -0.523457 -0.113364
on -0.527650 0.079715 0.116734 -0.324432 0.326756 0.331634 -0.070914 -0.088166 -0.529069 0.392363 0.021460 -0.251468 -0.669667 -0.065112 -0.325590 0.363451 -0.007570 0.038623 0.784299 -0.596059 -0.037617 -0.598981 -0.755520 0.145286 -0.090022 -0.352329 -0.220296 -0.435928 0.155882 -0.496788 -0.032460 -0.382885 -0.222796 -0.781988 0.073219 -0.146472 -1.167344 -0.304148 0.322803 -0.656839 0.226209 -0.235467 -0.392712 -0.248811 -0.595263 -0.235506 0.309561 -0.003193 -0.616714 -0.435197
neighbors -0.125898 0.123763 -0.497028 -0.325458 0.531926 0.436544 -0.168581 -0.445994 0.077183 -0.308076 -0.143789 -0.134609 -0.494155 -0.287204 -0.743607 0.048572 -0.065207 0.185287 0.323916 -0.129207 0.318472 0.080115 -0.430272 0.033117 -0.153862 -0.403231 -0.280200 -0.388909 0.226921 0.132687 0.296207 -0.017160 -0.161364 -0.235858 -0.173403 -0.115149 -0.259720 -0.052076 0.007014 -0.728869 -0.541314 0.037668 -0.039499 0.087275 -0.366764 -0.390888 -0.290750 0.126365 -0.353698 -0.021679
The 0.358062 -0.231899 -0.061916 -0.090051 0.277483 0.003602 -0.074617 -0.328247 -0.836785 -0.180052 -0.056858 -0.191278 -0.710446 -0.303522 -0.394705 -0.153431 0.080459 -0.127323 0.405079 -0.118189 0.007096 -0.381686 -0.734318 0.385016 0.130078 0.516603 0.374559 -0.252784 0.053807 -0.397862 0.090093 -0.127875 -0.263319 -0.531945 -0.391256 -0.129663 -0.646004 -0.263665 -0.076474 -0.921883 -0.293409 -0.175613 -0.756299 0.265239 -0.699194 0.161814 0.204174 -0.260404 -0.671175 -0.386662
Dursleys -0.596705 0.200086 -0.291890 -0.416965 0.708446 0.703507 -0.226126 -0.109884 -0.019678 -0.548337 -0.640876 -0.431708 -0.783248 0.404680 -1.059026 -0.447647 -0.470149 -0.409676 0.352877 0.009864 -0.105382 -0.444354 -0.206564 0.060646 -0.214747 -0.275371 -0.298342 -0.556863 -0.521133 -0.318567 -0.162643 -0.128959 -0.319844 -0.141947 -0.097566 -0.194188 -0.456885 0.189767 -0.097541 -0.893474 -0.357992 -0.042666 -0.527735 -0.074164 -0.376125 -0.200358 0.156868 -0.169390 -0.633287 -0.017615
small -0.169137 0.039861 0.013448 -0.571699 0.249342 0.407503 -0.094458 -0.161085 0.069576 0.251638 -0.497564 -0.503377 -0.657596 0.343910 -0.309675 -0.028021 -0.292392 -0.539301 0.390571 0.025646 0.129157 -0.437872 -0.814994 -0.270746 -0.132317 0.049423 -0.439518 -0.619540 -0.105522 0.174839 0.384483 -0.397113 -0.072123 -0.592692 -0.566774 -0.027427 -0.376809 -0.089662 0.333118 -0.634764 0.023061 -0.245571 -0.673455 0.071237 -0.784969 0.002142 -0.158509 -0.124982 -0.471072 0.048119
son -0.155031 0.090348 -0.494634 0.037512 0.063061 -0.122412 0.256654 -0.361295 -0.488199 0.490483 -0.048560 -0.325591 -0.733197 -0.067674 -0.444158 -0.371083 -0.261617 -0.373424 0.428676 0.182107 -0.293845 -0.883028 -0.338391 0.405350 -0.305122 -0.303567 -0.322852 -0.418278 -0.478917 0.304544 0.209663 -0.607964 -0.259322 -0.237838 -0.517912 0.218941 -0.315461 0.157231 0.068974 -0.782863 -0.058702 0.085986 -0.158576 0.066314 -0.345401 -0.092078 -0.331934 0.302740 -0.286923 -0.585657
Dudley -0.265991 -0.243100 -0.199794 -0.380569 0.843984 0.005422 -0.105195 -0.107383 -0.108978 -0.079839 -0.266000 -0.345609 -0.968336 0.431885 -0.733667 -0.315165 -0.217445 -0.567600 0.464865 -0.116610 -0.375616 -0.479096 -0.389323 -0.107007 -0.499794 0.017087 -0.126493 -0.384962 -0.877413 0.032555 -0.369195 0.032315 -0.045862 0.008913 0.044433 -0.005139 -0.376442 0.002794 0.196091 -0.615324 -0.203708 0.163451 -0.815829 -0.379655 -0.368104 -0.344236 0.296228 -0.259446 -0.429317 -0.141644
their 0.094974 -0.146141 -0.068876 -0.648732 0.871832 0.246977 -0.555579 -0.467361 -0.784081 -0.318202 0.064560 0.007498 -0.502627 0.375638 -0.790951 -0.392214 0.034143 0.189385 0.712781 -0.186730 -0.713971 -0.345764 -0.356225 0.063406 0.142335 0.019210 -0.238381 -0.296003 -0.130055 0.133111 0.354426 0.092713 -0.733181 -0.495912 -0.436119 -0.353624 -0.113536 -0.117727 0.209695 -0.103635 -0.262792 0.214920 -0.657881 -0.141531 -0.319669 -0.326301 0.192149 -0.397067 -0.612633 -0.146915
opinion 0.008660 0.230240 -0.368545 -0.224508 0.491852 0.081993 0.107850 -0.432392 -0.499952 0.241538 -0.322572 -0.374723 -0.894105 0.313558 -0.255257 -0.185836 0.044955 -0.466009 -0.107573 0.121911 -0.389112 0.082515 -0.413978 -0.165164 0.340872 0.209098 -0.207916 -0.693144 -0.280552 0.127748 -0.129922 -0.436030 -0.299340 -0.268349 -0.171448 -0.086804 -0.344858 0.058453 -0.253984 -0.195581 -0.253849 0.201821 -0.762309 -0.059421 -0.067045 0.131392 -0.052046 -0.341031 -0.341814 -0.344940
there -0.493700 0.042096 -0.310617 -0.365083 0.604064 0.301754 -0.060226 -0.431836 -0.219689 -0.320921 0.009282 -0.562627 -0.770441 0.170922 -0.793612 -0.512287 -0.703982 -0.518367 0.346283 -0.124404 -0.296822 -0.268805 -0.766055 0.128328 -0.590242 0.207898 -0.852946 -0.199829 -0.396521 -0.333335 -0.372547 -0.123670 -0.061457 -0.622375 -0.361183 0.052481 -0.745895 0.156753 -0.056039 -0.464512 -0.172187 0.287766 -0.147002 -0.286691 -0.439219 -0.110008 -0.449893 0.050142 -0.790092 -0.296472
no -0.236163 0.385306 -0.073694 -0.215551 0.735454 0.190494 -0.116623 -0.774109 -0.601831 -0.850165 -0.452411 -0.301345 -0.680821 -0.392565 -0.833347 -0.725509 -0.176758 -0.895242 0.145906 -0.013420 0.215658 -0.373326 -0.297174 0.643616 -0.086369 0.260358 -0.514366 -0.094381 -0.161995 -0.267874 -0.101970 -0.404615 0.316196 -0.375822 -0.136649 0.596369 -0.728999 0.225353 -0.283167 -0.327555 -0.314773 -0.007492 -0.469143 0.188504 -0.256983 0.009769 -0.357223 -0.047432 -0.753773 -0.563566
finer -0.142390 -0.292589 -0.428117 -0.469462 0.597761 -0.170401 -0.315593 0.246450 0.418028 0.178226 0.318240 -0.398073 -0.155568 -0.319566 -0.477936 -0.211501 0.276740 0.176593 0.366875 -0.177161 -0.297490 -0.545118 -0.598130 0.134862 0.008913 0.312609 -0.199871 -0.272699 0.058592 0.488589 0.091269 0.317417 -0.266202 -0.653479 -0.404917 -0.268710 -0.215243 -0.347183 -0.167668 -0.629898 0.035487 -0.007379 0.023674 -0.155203 -0.589850 0.190385 -0.481693 0.207108 -0.298498 -0.131718
boy -0.656735 -0.049728 -0.398694 0.168381 0.475253 0.310403 -0.259656 -0.172184 -0.054194 -0.189390 -0.164885 -0.372976 -0.552281 0.442965 -0.567097 -0.262569 -0.016028 -0.289482 0.678721 0.149214 0.059993 -0.692245 -0.419457 0.188537 -0.068975 -0.157911 0.057214 -0.853625 -0.269737 -0.019857 -0.419081 -0.272782 -0.330431 -0.324500 -0.561404 0.274741 -0.269254 0.252391 -0.245106 -0.443444 -0.306597 0.216912 -0.749192 -0.458280 -0.637471 0.160578 -0.336192 -0.670034 -0.280728 -0.215359
anywhere -0.554312 -0.343133 0.294734 -0.429786 0.785750 0.287642 -0.519679 -0.234392 -0.720436 0.106449 0.048275 -0.463307 -0.630538 -0.387176 -0.157490 -0.123411 -0.128269 -0.093418 0.326470 0.045427 -0.647691 -0.221043 -0.132276 -0.161269 -0.025920 -0.189377 -0.430347 -0.106131 0.160095 -0.110485 0.069970 -0.610242 0.140734 -0.610743 -0.168244 -0.214291 -0.258279 0.323461 -0.272680 -0.468084 -0.121020 0.394435 -0.576713 0.029753 0.039809 -0.151101 0.167165 -0.031719 -0.571454 -0.568334
everything -0.399118 -0.350621 0.050401 -0.110476 0.260075 0.163840 -0.642700 -0.495155 -0.200410 0.192819 -0.212112 -0.568101 -0.516791 0.006252 -0.239181 -0.553200 -0.234616 -0.489245 0.496072 -0.393799 -0.098306 -0.642841 -0.682638 0.195594 -0.165603 -0.099457 -0.275086 -0.175139 0.016713 0.492616 0.103393 -0.519732 -0.040126 -0.621457 0.054957 0.138850 -0.631082 0.209058 0.081075 -0.434738 -0.593536 0.263433 -0.397525 -0.643542 -0.586541 -0.423380 -0.583523 -0.056691 -0.740013 -0.682373
wanted -0.863977 -0.184043 -0.120501 -0.050857 0.726133 -0.011635 0.099701 -0.271208 0.008993 -0.090167 0.105299 -0.485467 -0.821472 -0.585076 -0.426869 -0.697670 -0.300020 -0.507393 0.547082 0.070298 0.005097 -0.326397 -0.327029 0.119955 -0.243334 0.148343 -0.571045 -0.410255 -0.143824 -0.106832 -0.450991 -0.445335 -0.479539 -0.128654 -0.038292 0.036455 -0.355839 0.052548 -0.037683 -1.181746 0.010274 -0.328367 -0.389430 -0.882307 -0.588048 -0.590521 -0.501576 0.307321 -0.955244 0.000139
but -0.163462 -0.080868 -0.218776 -0.358957 0.471376 0.139846 -0.190415 -0.358379 -0.470961 0.529889 0.070171 -0.610353 -0.889751 0.086510 -0.416366 -0.574260 -0.067429 -0.193333 0.234465 -0.084003 -0.062279 -0.311735 -0.182820 0.425465 -0.316289 0.063160 -0.499624 -0.493987 -0.270008 -0.030246 -0.320205 -0.264159 0.009655 -0.382725 -0.168057 0.104453 -0.763806 0.149329 -0.440432 -0.644896 -0.359705 -0.129505 -0.616476 -0.172134 -0.763868 -0.056371 -0.225215 -0.025491 -0.283353 -0.082780
also -0.209207 -0.166852 0.012020 -0.138868 0.509817 0.329541 -0.103760 -0.012339 0.004085 0.090569 -0.206340 -0.031321 -0.993991 -0.174021 -0.530892 -0.307191 0.049182 -0.634114 0.224038 -0.159517 0.135352 -0.650159 -0.056389 -0.050725 -0.426322 -0.039296 -0.482965 -0.275968 -0.200093 0.387133 0.327247 -0.257845 -0.532608 0.089345 -0.233248 0.135964 -0.692860 0.339009 0.134891 -0.475134 -0.285312 0.195388 -0.573981 -0.525955 -0.355912 -0.353565 -0.576434 0.292800 -0.263926 -0.096927
secret -0.708930 -0.081791 -0.361725 -0.215117 0.221789 0.462377 -0.637888 -0.145304 -0.279655 0.026925 0.307258 -0.280206 -0.987498 -0.346893 -0.406282 -0.462890 0.409730 -0.400859 0.429592 0.024817 -0.488626 -0.336997 -0.542772 -0.243545 -0.192987 0.244648 0.149016 -0.659662 -0.218010 -0.261754 0.087094 -0.702584 -0.356211 -0.524740 -0.204562 0.227249 -0.185223 0.146275 0.269429 -0.567545 0.134834 -0.412694 -0.486337 -0.164161 0.055503 0.007627 -0.039564 0.181534 -0.686575 -0.053811
greatest -0.209319 -0.055214 -0.289338 -0.319414 0.781795 0.339836 -0.007525 -0.643240 -0.607175 0.007290 0.073284 -0.654098 -0.502671 0.393763 -0.456995 -0.091463 0.521708 0.111891 0.171057 0.233261 -0.033804 -0.449864 -0.258948 0.086045 0.046535 0.178933 0.228810 -0.270271 -0.016218 -0.003886 -0.179061 -0.432929 0.028006 -0.080026 -0.129227 -0.519759 0.174976 -0.312180 0.029649 -0.918426 0.230312 -0.208131 -0.360529 -0.465291 -0.546964 -0.168218 -0.012338 -0.202638 -0.112291 -0.373393
fear 0.025919 -0.125288 -0.417946 -0.009480 0.513159 0.468825 0.071884 -0.505601 0.005534 0.212315 -0.233311 -0.347494 -0.937807 0.477299 -0.223119 -0.320515 -0.108570 -0.271512 0.412756 0.405390 -0.129223 -0.222446 -0.434174 -0.227027 -0.114107 -0.018205 -0.150072 0.151829 0.085822 0.005004 0.107589 -0.430457 -0.537052 -0.157491 0.162632 0.010556 -0.397683 -0.067796 -0.410803 -0.440840 -0.093220 -0.161314 0.072507 -0.143130 -0.430693 -0.366713 -0.821212 0.335271 -0.702361 -0.285782
somebody -0.012157 0.196975 -0.032383 -0.271883 0.039967 0.178986 0.006353 0.015161 -0.308750 0.335697 -0.093871 0.055124 -0.753473 -0.211317 -0.482383 -0.110907 -0.155639 -0.212026 0.523207 0.063145 0.181753 -0.554048 -0.718356 0.058368 -0.324621 0.086191 -0.258886 -0.074242 -0.212243 0.388137 -0.238346 0.108952 -0.134640 -0.373300 -0.071651 0.257943 0.272875 0.094515 -0.443132 -0.404962 0.549720 -0.049582 -0.561530 -0.436580 0.239410 0.153741 -0.331753 0.153581 -0.308126 -0.266593
would -0.204725 -0.045125 0.299756 -0.040927 0.246827 0.242280 -0.183775 -0.068302 0.038927 0.156789 0.085120 -0.700328 -0.825125 -0.360780 -0.520449 -0.261789 -0.208048 -0.272369 0.516821 0.070299 0.130473 -0.312897 -0.649327 -0.226336 -0.215392 -0.414214 -0.668085 -0.797433 -0.318654 0.099962 -0.494360 0.044233 -0.325690 -0.451658 0.127309 0.007642 -0.460198 0.271275 0.003056 -0.896945 0.184251 0.211631 -0.743996 -0.450017 -0.111140 -0.302107 -0.800139 -0.291666 -0.414322 -0.517189
discover 0.020985 0.443761 0.149485 -0.382235 0.699214 -0.274265 -0.008404 -0.163542 -0.391184 -0.141017 0.207918 -0.052934 0.196408 0.163892 0.039660 0.385019 0.308942 0.120086 0.087961 0.082311 0.004112 -0.265755 -0.374828 -0.159920 0.185038 0.475555 -0.017439 0.102821 -0.264507 0.231338 0.447735 0.125051 -0.029222 0.352325 0.461417 0.091541 0.083451 -0.458999 0.150255 -0.485608 0.195681 0.292505 -0.275981 0.290460 0.128490 0.133970 -0.238216 0.092557 -0.011872 0.084941
it -0.632815 0.221857 -0.072785 -0.392662 0.328653 0.054642 0.044965 -0.221530 -0.139753 0.207816 -0.038044 -0.676781 -1.050249 -0.005158 -0.979955 -0.475359 -0.413061 -0.057836 0.299012 0.043011 -0.213155 -0.496590 -0.223381 0.393356 -0.251379 -0.395784 -0.415023 -0.682187 0.138064 0.209322 -0.107929 0.193184 0.223955 -0.487731 -0.085983 0.452757 -0.372313 0.122996 -0.065140 -0.246671 -0.539108 0.217562 -0.566735 -0.512529 -0.708236 -0.373725 -0.651860 -0.152314 -0.196932 -0.235625
think -0.446673 0.263082 -0.552345 -0.063482 0.949029 0.232639 0.426748 -0.601145 -0.302155 0.177919 0.035349 -1.049385 -0.584032 -0.570833 -1.083739 -0.863604 0.003789 -0.352162 0.476590 0.013786 -0.560449 -0.389931 -0.531049 -0.191085 -0.014772 0.000542 -0.393749 -0.608498 -0.307835 0.045692 -0.302896 -0.019065 0.038669 -0.440915 -0.239064 0.434559 -0.984376 0.486346 -0.538370 -0.360410 -0.168357 -0.284918 0.149094 -0.934380 -0.543793 -0.022049 -1.082823 -0.181140 -0.727192 -0.854101
could -0.511252 -0.223885 0.475002 -0.259048 0.698420 0.330974 -0.194117 -0.042945 -0.362981 0.008783 0.343868 -0.496464 -0.705239 -0.304084 -0.674857 -0.488831 0.060764 -0.046355 0.735897 -0.017617 -0.099562 -0.482245 -0.668415 0.364305 -0.650497 -0.801889 -0.549722 -0.390357 -0.371871 0.134081 -0.832733 -0.282158 -0.415209 -0.626831 -0.010957 0.093526 -0.118956 0.263964 -0.408770 -0.703845 -0.204135 0.071509 -0.437141 -0.219605 0.170952 -0.518734 -0.746765 -0.009402 -0.852799 -0.673694
bear -0.314630 0.168964 0.171443 0.099274 0.502657 -0.185903 0.198835 -0.372789 -0.519113 0.014845 0.142078 -0.539597 -0.896376 0.048800 -0.750952 -0.581455 0.142624 -0.683921 0.029930 0.129526 -0.247341 -0.014116 0.064293 0.239737 -0.524345 -0.210565 0.221793 -0.022383 0.112484 0.073604 0.114093 -0.767246 -0.412047 -0.578555 -0.347155 -0.130014 -0.139718 0.265539 -0.053153 0.076515 -0.535910 0.156345 -0.541230 0.033562 -0.536420 -0.208295 -0.431820 0.126139 -0.516776 -0.527118
if -0.316823 -0.141603 -0.493123 -0.161554 0.506727 -0.108340 -0.052907 -0.116050 -0.395214 0.234605 -0.172618 -0.847193 -1.113478 -0.427963 -1.052960 -0.981916 -0.041087 -0.401234 0.653713 0.322064 -0.387792 0.015782 -0.038575 -0.212276 -0.426418 -0.177346 -0.102587 -0.545648 -0.271724 -0.013000 -0.491871 0.131602 -0.157635 -0.289770 -0.065678 0.262827 -0.539120 0.107012 0.109494 -0.355328 0.346846 0.305705 -0.536649 -0.381997 -0.437458 -0.628358 -0.399990 -0.146969 -0.601327 -0.823644
anyone -0.679324 -0.142215 -0.167689 0.031975 0.243093 0.677978 0.001485 -0.311083 -0.214253 0.071306 -0.171471 -0.729923 -0.630058 0.142231 -0.592988 -0.682151 -0.133929 -0.566515 0.469077 -0.266001 -0.192752 -0.320509 0.078887 -0.087379 -0.575534 -0.383815 -0.442961 -0.422104 -0.410291 0.225937 -0.178938 -0.213036 -0.076265 -0.324308 -0.214564 -0.065428 -0.371145 0.478200 0.177145 -0.984038 -0.184388 0.214010 -0.658366 -0.776964 -0.505026 -0.651436 -0.789760 -0.106637 -0.343446 -0.252473
found -0.392137 -0.317661 0.351380 -0.369310 0.535517 0.315856 -0.405734 -0.234220 -0.213311 -0.021414 0.221890 -0.609849 -0.914822 -0.180335 -0.687297 -0.732977 0.116533 0.004446 0.154334 -0.285234 -0.121626 -0.517958 -0.836304 0.085111 -0.365701 0.345394 -0.415411 -0.875092 -0.378632 -0.082543 -0.351241 -0.306120 -0.157154 -0.431294 -0.298074 -0.144808 -0.355963 -0.155084 -0.480206 -0.756012 -0.004086 0.155839 -0.471164 -0.654514 -0.027387 -0.394296 0.017898 0.052809 -1.037572 -0.299884
out -0.312184 -0.113046 -0.049220 -0.939338 0.681793 0.225191 0.158169 -0.326824 -0.128762 0.092194 0.178783 -0.685787 -0.559899 0.267127 -0.351817 -0.398243 -0.294030 -0.407593 0.704858 -0.361780 0.479414 -0.398288 -0.373509 0.100027 -0.632958 -0.110436 -0.007538 -0.238666 -0.107843 0.080360 0.021570 -0.208795 -0.178170 -0.415786 -0.242375 -0.023624 -0.959358 -0.205150 0.220631 -0.590860 -0.577884 -0.206653 -0.652746 -0.237656 -0.824721 -0.028464 -0.369152 -0.161403 -0.557486 -0.545429
about -0.254972 0.061944 -0.671272 0.317672 0.173291 0.472920 -0.315902 -0.011717 -0.044107 0.601012 0.339588 -0.290583 -0.768592 -0.599567 -0.491485 -0.296505 -0.182938 -0.120192 0.420258 -0.028425 -0.332003 -0.363489 -0.844913 -0.079915 0.231544 -0.078995 -0.695070 -0.475281 -0.315249 -0.292559 -0.209901 -0.580449 -0.372595 -0.370306 0.388975 0.036042 -0.806155 0.336820 -0.066510 -0.790253 -0.033621 0.044375 -0.533261 -0.244007 -0.799534 -0.403754 -0.000575 0.057097 -0.618257 0.017523
Potters -0.349044 0.047316 -0.223048 0.169451 0.141282 0.570855 -0.299412 -0.386693 -0.567579 0.019627 -0.141758 -0.255685 -0.867501 -0.182559 -0.701056 -0.400816 -0.183286 0.029091 0.669552 -0.247584 -0.149281 -0.548166 -0.678230 0.389396 -0.388778 -0.174403 -0.612045 -0.765430 -0.257349 -0.545930 0.060455 -0.350806 -0.370527 -0.238045 -0.525746 -0.335979 -0.021079 0.261253 0.270149 -0.292632 -0.334454 0.246301 -0.558153 -0.063227 0.036237 -0.128872 -0.477144 -0.455336 -0.652977 0.119525
sister -0.072023 -0.209052 0.203134 -0.089671 0.764448 0.650585 -0.043038 -0.098239 -0.512880 -0.384479 -0.210097 -0.048642 -1.262595 -0.085647 -0.030304 -0.196121 -0.042412 0.205328 -0.049335 0.183778 0.174498 -0.298248 -0.534918 0.070174 0.029865 0.050507 -0.365956 -0.413069 -0.756936 0.002346 -0.459246 -0.729211 -0.368722 0.238564 -0.399322 -0.335252 -0.133782 -0.182245 -0.101168 -0.425193 -0.547629 0.120976 -0.570690 -0.317967 -0.656927 0.047615 -0.472556 0.266593 -0.572237 -0.413334
hadnt -0.761802 -0.035064 0.620124 -0.118075 0.568956 -0.128171 -0.232489 -0.165277 -0.013837 0.026108 -0.264330 -0.440701 -1.140830 -0.243769 -0.971798 -0.677454 -0.175942 0.046352 0.584423 -0.573560 0.144946 -0.680993 -0.319826 -0.280133 -0.531636 0.046845 -0.512799 -0.470097 -0.543780 0.328871 -0.560019 -0.391494 -0.280085 0.295870 -0.255528 0.292795 -0.163042 -0.162552 -0.129682 -0.864145 -0.431022 0.096799 -0.772872 -0.461822 -0.709318 -0.158346 -0.220134 -0.502871 -0.613145 -0.322124
met -0.664885 0.022322 0.314671 -0.295654 0.208287 0.162917 -0.269819 -0.379377 -0.166792 0.329370 -0.013316 0.054679 -1.083654 0.182013 -0.568494 -0.862313 -0.152973 -0.081857 0.350938 -0.391059 -0.521324 -0.506245 -0.164919 0.380278 -0.307924 -0.284774 0.034038 -0.703844 -0.053833 0.396657 -0.541349 -0.590919 -0.368372 0.069982 -0.177543 -0.076652 -0.579803 -0.105109 0.358517 -0.402581 -0.125897 -0.176928 -0.416520 -0.287872 -0.441023 -0.236572 -0.490845 0.491286 -0.796325 -0.447580
for -0.148498 0.210958 -0.118519 -0.005563 0.422608 0.180613 -0.188855 0.160538 -0.297817 -0.083292 0.105290 -0.107461 -0.648796 -0.162332 -0.759403 -0.028186 -0.036987 -0.434396 0.472061 -0.187955 -0.039166 -0.050689 -0.957285 0.125900 -0.035755 -0.151573 -0.677805 -0.472338 0.029204 -0.009431 -0.029952 -0.403016 -0.635092 -0.002997 -0.103403 0.112445 -0.475131 -0.239180 -0.497859 -0.343446 -0.220130 0.038690 -0.387390 0.166506 -0.961370 -0.269124 -0.202369 -0.526855 -0.711114 -0.273220
several 0.069880 0.194970 -0.437758 -0.334435 0.557219 0.060151 0.028219 -0.362143 0.086406 0.130790 -0.680630 0.191439 -0.896519 -0.102566 -0.434160 0.193266 -0.335934 -0.327264 0.262554 0.159569 -0.596135 -0.519699 -0.551665 -0.186860 0.234765 0.356088 -0.190414 -0.334973 -0.298449 0.303024 -0.056490 -0.470483 -0.300860 -0.337033 0.242731 -0.205051 -0.307344 -0.069209 -0.223752 -0.564168 -0.226890 0.232803 -0.403457 -0.273164 -0.282739 0.031646 -0.353244 0.209670 -0.507369 0.086043
years -0.325148 -0.086751 -0.708827 0.359141 0.700411 0.365739 -0.117727 -0.567308 -0.338374 -0.234808 -0.590930 0.086448 -0.619606 0.151305 -0.817672 -0.262849 0.123324 -0.752170 -0.378933 -0.289333 -0.404429 -0.059612 -0.990563 -0.069597 0.257583 -0.170967 -0.660490 -1.002981 0.205279 -0.060951 0.147437 0.328657 -0.438924 0.062981 -0.415121 -0.175910 -0.235561 0.162631 -0.440506 -0.367686 -0.083963 -0.163231 -0.654802 -0.088894 -0.444253 -0.497925 -0.251286 -0.295067 -0.974760 -0.527443
fact -0.185702 0.357443 -0.039997 -0.194938 0.162294 0.510920 -0.522457 -0.220718 0.068821 -0.098640 -0.426640 -0.243052 -1.118296 -0.370952 -0.817217 -0.336244 -0.398403 -0.137960 0.493161 -0.237378 -0.071551 -1.006338 -0.931728 0.269137 -0.052915 0.505140 -0.253249 -0.325399 -0.451435 0.105145 0.281222 -0.415489 0.004620 -0.024250 -0.558383 0.204507 -0.669525 0.142273 0.095157 -0.460195 -0.571267 -0.488700 -0.185857 -0.036208 -0.374704 0.210629 -0.153733 -0.247312 -0.482470 0.004288
pretended -0.300678 -0.073150 -0.276693 0.107528 0.683109 0.321706 -0.174537 -0.315975 -0.327443 0.095047 -0.444429 0.206931 -0.455977 0.073047 -0.338500 -0.596826 -0.364106 -0.252028 0.079833 -0.070475 -0.542217 -0.421496 -0.041693 0.502266 0.046197 -0.361427 0.041044 -0.110143 0.011098 0.369294 -0.304792 -0.041047 -0.106378 -0.452543 -0.014275 0.062489 -0.586763 0.168531 -0.494238 -0.227829 0.340192 -0.305642 -0.349121 -0.105134 -0.178989 -0.286000 -0.521731 0.191710 -0.193677 -0.053540
goodfornothing 0.017827 0.108326 -0.084199 -0.278318 0.150516 0.627259 -0.260792 -0.406047 -0.381682 0.491815 0.450468 -0.087210 0.056489 0.081896 -0.187051 -0.010095 0.400163 -0.372932 0.237749 0.005187 -0.277478 -0.174901 0.089715 0.251715 -0.214557 0.370804 -0.196474 0.352540 -0.218563 -0.107889 -0.227388 0.390465 -0.292599 -0.044279 -0.128186 -0.559281 0.316559 0.108895 -0.294204 -0.132858 -0.182477 0.518059 -0.369608 -0.079996 -0.471872 -0.202966 0.297910 0.455626 -0.390721 -0.350403
husband 0.201932 0.470878 0.421998 0.325389 -0.270984 0.472941 0.030611 -0.474832 -0.371911 -0.002840 0.028859 0.121558 -0.151840 0.420066 0.192409 0.309681 -0.209945 -0.438108 0.364076 0.076751 0.413965 0.159799 -0.412225 -0.259478 0.116058 -0.325248 0.419031 0.318518 0.396360 0.091953 -0.333748 -0.038545 0.358841 -0.013077 0.162435 0.137832 -0.433858 -0.217336 0.116236 -0.277463 0.055610 -0.273283 -0.496361 -0.039796 -0.396916 0.499846 0.168353 0.437826 -0.434285 0.367047
unDursleyish -0.357299 -0.391159 0.155880 -0.289489 0.046914 -0.183961 -0.291461 0.237937 -0.196084 0.574415 -0.120192 -0.190482 0.194629 0.061008 -0.438175 -0.219160 -0.057784 -0.083587 0.709859 -0.183882 0.338401 0.156965 -0.484484 -0.039235 0.270410 -0.161853 0.230295 -0.610421 -0.150968 0.398609 0.452618 -0.235455 -0.038907 0.316388 0.512363 0.249421 -0.387198 0.021143 -0.286530 0.176416 0.516848 0.108156 -0.353014 -0.011448 0.117876 -0.073081 0.281145 0.387125 -0.643419 -0.141154
possible 0.162748 -0.123774 -0.606396 -0.408281 0.754595 0.482531 -0.217711 -0.281132 -0.253513 -0.257214 -0.109157 -0.617505 -0.798291 0.455352 -0.563784 0.018141 -0.548224 -0.031549 0.305409 -0.168445 -0.221900 -0.132408 -0.382770 -0.040432 0.119839 -0.342864 -0.249619 -0.531739 -0.248148 0.102285 -0.325510 -0.107329 -0.437270 -0.778070 0.204765 -0.366586 -0.003307 0.715155 -0.444258 -0.686800 0.234431 -0.449132 -0.728843 -0.604183 -0.440671 -0.152793 -0.045535 0.497643 -0.599260 -0.186801
shuddered 0.204337 -0.192323 -0.020884 0.349062 0.608920 -0.161186 -0.192305 -0.467499 -0.543847 0.232091 0.166512 -0.351042 -0.509426 -0.218754 -0.764700 -0.518396 0.130801 0.271952 -0.064463 -0.311538 0.385713 0.225163 -0.365265 -0.289074 0.285703 0.008007 -0.434121 0.110659 0.121559 0.514430 -0.145331 0.186984 -0.132905 -0.367474 -0.029081 -0.448625 -0.599159 -0.517398 -0.161523 -0.620610 0.450355 -0.435494 -0.655667 -0.432872 -0.007869 0.182901 -0.058318 -0.126811 -0.321165 0.220770
what -0.636409 -0.609032 -0.362214 -0.145886 0.850169 0.466721 -0.167653 -0.158421 -0.117536 0.448015 0.039314 -0.754250 -0.916502 -0.732572 -0.869643 -0.508010 -0.053538 -0.091417 0.598238 -0.136012 -0.699732 -0.377323 -0.018489 0.021638 -0.897954 0.014566 -0.328616 -0.367701 -0.382826 -0.112944 -0.095289 -0.124892 0.221070 0.218131 -0.291367 0.356271 -0.564133 0.424424 0.252586 -0.228740 -0.240550 0.133592 -0.429033 -0.681663 -0.988052 -0.748718 -0.457266 -0.007754 -0.581045 -0.583081
arrived 0.253657 -0.108387 0.222641 -0.468731 0.703887 0.198655 -0.589306 -0.363263 -0.277796 0.089256 -0.635650 -0.681747 -0.488933 0.030138 -0.872893 -0.310155 0.126743 -0.732711 0.091813 0.168311 -0.329798 -0.350582 -0.268101 0.408594 -0.270464 0.238012 -0.492533 -0.394256 -0.621263 0.399575 -0.249512 -0.622903 -0.717875 -0.350913 -0.559123 0.257041 -0.045929 -0.229491 -0.641538 -0.354137 -0.085980 0.098597 -0.539922 -0.187340 0.056443 -0.113294 -0.419784 0.019626 -0.957638 -0.123226
street -0.170409 0.432049 -0.289089 -0.556968 0.411200 0.382943 -0.332354 -0.188439 -0.354602 -0.052171 -0.236084 0.053263 -0.693728 0.183659 -0.493855 -0.277934 -0.269188 -0.155730 0.513409 0.017373 -0.024942 -0.529853 -0.789858 -0.086389 0.248964 -0.074740 -0.491321 -0.435871 -0.015856 -0.317946 0.090157 0.009381 -0.695618 -1.008710 -0.063268 -0.631071 -0.384528 -0.053614 -0.340207 -0.937076 -0.118532 -0.017243 -0.455777 -0.110217 -0.400697 -0.425095 -0.575583 -0.030395 -0.596213 -0.080799
knew -0.542220 -0.074830 -0.267824 0.037977 0.614991 0.004125 0.165539 -0.482320 -0.064888 0.108199 -0.265631 -0.440635 -1.231683 -0.376916 -0.976044 -0.573557 -0.040081 -0.643420 0.287831 -0.298822 -0.059760 -0.242764 -0.513836 0.463780 -0.628679 -0.197864 -0.785913 -0.539194 -0.743057 0.360888 -0.482708 -0.326571 -0.118353 -0.471753 0.272403 0.349660 -0.711776 0.199792 -0.120922 -0.526289 -0.061495 -0.233827 -0.376084 -0.337348 -0.568627 -0.674395 -0.084604 -0.229214 -0.521720 -0.311179
too -0.282178 -0.219186 -0.261983 0.154267 0.503867 0.114636 0.482826 -0.378009 -0.013172 -0.006435 -0.405882 -0.368545 -1.037378 -0.322180 -0.861029 -0.419895 -0.728787 -0.522066 0.396708 0.478224 -0.044317 -0.554289 -0.289264 -0.184023 -0.195474 0.076714 -0.511180 -0.412632 -0.543650 -0.091033 -0.218597 -0.133868 -0.190775 -0.047648 -0.038932 0.292824 -0.659648 -0.159851 -0.015949 -0.665475 0.368303 0.023204 -0.201338 -0.132938 -0.591703 -0.136536 -0.858581 -0.323636 -0.392311 -0.158460
never -0.671428 -0.060961 0.030882 0.105688 0.607596 0.488191 -0.146163 0.214036 0.111288 0.269981 -0.318158 -1.017476 -0.613916 -0.332983 -1.449925 -0.800936 0.017212 -0.352470 -0.126936 -0.415465 0.131030 -0.119495 -0.552332 0.130714 -0.454288 -0.536024 -0.114514 -0.528172 -0.397795 0.108906 -0.301231 -0.249688 -0.062835 0.001297 -0.287881 0.345109 -0.511127 0.260372 -0.483384 -0.777762 -0.265707 0.067805 -0.404340 -0.671656 -0.491743 -0.208017 -0.328265 -0.529088 -0.974177 -0.515942
even -0.347079 0.190163 -0.253421 -0.198179 0.266131 0.466264 -0.041175 -0.293725 -0.249396 0.242282 -0.134264 -0.635727 -0.929503 0.232222 -0.581064 -0.988155 -0.067525 -0.228806 0.063502 -0.152909 0.070557 -0.579300 -0.312636 0.340650 -0.390846 -0.192512 -0.712640 -0.019306 -0.482953 0.053998 -0.424171 -0.288068 0.060529 0.029785 -0.380460 -0.059646 -0.410402 0.153960 -0.139877 -0.776078 -0.349584 0.465650 -0.352341 -0.143591 -0.661809 -0.230213 -0.544028 -0.147798 -0.520510 -0.488085
seen -0.521130 0.227866 0.017616 0.077886 0.122858 0.052213 -0.515096 0.495624 0.119329 -0.048388 -0.198278 -0.608263 -0.917492 -0.057687 -1.421839 -0.590202 0.057547 -0.179678 0.075349 -0.113549 0.056484 -0.394548 -0.717463 0.262660 -0.208948 -0.160092 -0.156564 -1.026962 -0.657137 0.159567 -0.819576 0.049537 0.013961 -0.230333 -0.237450 -0.140051 -0.785029 -0.055060 -0.181297 -0.933669 0.002529 -0.199793 -0.505478 -0.696216 -0.466324 -0.019428 -0.483067 -0.258565 -0.888971 -0.846438
him -0.687825 -0.062068 0.138994 -0.493848 0.671694 0.073693 -0.429995 -0.309644 -0.191231 0.409912 -0.788564 -0.409905 -0.781915 0.094399 -0.277340 -0.751940 -0.369372 0.068796 0.553096 -0.213047 -0.374242 0.007836 -0.494600 0.296308 0.006997 -0.359663 -0.315830 -0.428424 -0.236969 0.353753 -0.293034 -0.271972 -0.339710 -0.032281 -0.018152 0.240483 -0.034823 0.052118 0.145013 -0.469473 -0.501990 0.081081 -0.357174 -0.781749 -0.853450 -0.004772 -0.557373 0.025518 -0.683054 -0.247902
This -0.252501 -0.036989 0.090613 0.057962 0.168937 0.141128 -0.287443 -0.603846 -0.694144 -0.064092 0.114602 -0.496972 -1.170875 -0.508279 -0.894683 0.008371 -0.427310 -0.715969 0.294648 -0.137189 -0.779756 -0.051511 -0.590411 0.530967 0.045737 -0.119956 -0.024863 -0.935344 0.202266 -0.518021 0.169890 0.094173 -0.362096 -0.623184 -0.058048 0.154886 -0.325844 -0.158976 -0.175245 -0.652597 -0.553128 -0.044628 -0.516124 0.057349 -0.713970 -0.117670 -0.171260 -0.025876 -0.231130 -0.346477
another 0.163253 -0.082925 0.060243 -0.195679 0.500961 0.140804 -0.438703 -0.566306 -0.422103 -0.417310 -0.485140 -0.630581 -1.133306 -0.224140 -0.667886 -0.467600 -0.227471 -0.181500 0.283992 -0.068887 -0.649013 -0.262735 -0.560346 -0.016111 0.158314 -0.165672 -0.512924 -0.517787 -0.192836 -0.008308 0.115817 -0.283961 -0.686603 -0.018953 -0.276745 0.301866 -0.113004 -0.496595 -0.214031 -0.351545 -0.243668 0.571153 -0.132918 -0.005537 -0.460025 -0.084380 -0.077990 -0.144628 -1.025922 -0.391964
good -0.426052 0.341996 -0.643938 -0.082618 0.248217 0.084780 -0.168804 0.191646 -0.023215 0.033489 -0.276233 -0.508487 -0.956999 0.020508 -0.371385 -0.992829 -0.371111 -0.491776 0.751536 0.540300 -0.094436 -0.334755 -0.633289 0.373982 -0.276409 0.092042 -0.698391 -0.416062 -0.361244 -0.177750 0.022630 -0.110396 -0.141073 -0.129881 -0.580798 0.068644 -0.200939 0.380010 -0.287086 -0.549075 -0.381694 -0.148548 -0.390039 -0.107845 -0.598721 -0.202859 -0.785763 0.022038 -0.967166 -0.411867
reason -0.717491 0.287034 -0.522086 0.108351 0.386516 0.114868 -0.100250 0.238880 -0.284924 -0.349127 -0.725188 -0.173616 -1.022936 -0.239927 -0.568544 -0.480443 -0.000721 -0.396172 0.429242 -0.330427 0.154604 -0.186777 -0.525774 -0.184303 -0.019331 0.267061 -0.939309 -0.065422 -0.127126 -0.435933 -0.288271 -0.514997 -0.088193 -0.219070 -0.468070 -0.020725 -0.797142 -0.056739 0.009146 -0.988997 -0.254084 0.664270 -0.643050 -0.268856 -0.929881 -0.466333 -0.465656 0.072965 -0.764458 0.021343
keeping -0.477858 -0.029577 -0.331759 -0.401972 0.264683 0.347794 -0.448779 -0.299970 -0.630592 -0.328003 -0.467857 -0.380765 -0.618557 0.091881 -0.630228 -0.096734 -0.129411 -0.267807 0.369815 0.103391 -0.276347 -0.298630 -0.826869 0.047441 0.255544 0.108539 -0.152038 -0.136767 -0.091437 0.026265 -0.042420 -0.394555 -0.445137 -0.279182 -0.276234 -0.096859 -0.637798 -0.318756 0.156357 -0.135543 0.343004 -0.099823 -0.729950 0.017683 -0.733473 -0.088617 -0.641503 -0.006706 -0.063096 0.139831
away -0.210972 0.200243 -0.136934 -0.425576 0.631723 -0.020259 -0.010203 -0.411086 0.186564 0.066289 0.055601 -0.570318 -0.817309 0.612340 -0.420010 -0.001088 -0.075997 0.297276 0.462720 -0.426183 -0.359648 -0.754244 -0.191763 0.287955 -0.232603 -0.464299 -0.296104 -0.569264 -0.364320 0.298735 -0.330348 -0.278098 -0.435657 -0.526013 -0.441068 -0.302333 -0.311796 0.008122 0.200078 -0.233379 -0.171036 -0.088601 -0.660578 0.104090 -1.015366 0.004567 -0.041036 -0.314476 -0.659836 -0.315475
want -0.861445 -0.228613 -0.113337 0.009334 1.101402 0.170006 -0.022971 -0.363210 -0.391031 0.341650 0.475242 -0.614931 -0.466867 -0.518551 -0.680445 -0.687180 0.060054 -0.420991 0.272333 -0.357057 -0.613332 -0.477152 -0.151167 -0.202430 0.039014 -0.281434 -0.637405 -0.541259 -0.053550 -0.308231 -0.230354 -0.499687 0.167219 -0.632731 -0.088585 0.017924 -0.866882 0.506392 -0.629046 -0.790561 -0.015561 0.359132 -0.514351 -0.396063 -0.476364 -0.617858 -0.952188 -0.027609 -0.878350 -1.192280
mixing -0.142358 -0.203850 -0.467514 0.141212 0.258728 0.482955 -0.531372 -0.462565 -0.352428 0.026623 -0.190815 0.254446 -0.046100 0.453696 -0.404102 -0.344032 -0.092614 0.095276 0.773146 0.213969 0.060643 -0.034456 -0.129983 -0.154799 0.076429 -0.261807 -0.549726 -0.581309 -0.458870 0.265118 -0.372647 0.455280 -0.297350 -0.568644 0.039126 -0.234903 -0.282402 0.054806 -0.436120 -0.625125 0.291399 -0.157001 0.177203 0.259825 -0.632883 -0.310565 -0.596210 0.260189 -0.391735 0.263422
child -0.396375 0.363640 -0.112348 0.272503 0.290648 0.494025 0.015109 0.122469 -0.438144 0.105436 -0.057057 0.177254 -0.060405 0.383452 -0.255556 0.139175 -0.027457 -0.550125 -0.101805 -0.070679 0.011127 -0.319662 -0.682580 -0.175723 -0.371891 0.238681 0.307322 -0.564875 -0.198418 -0.417077 -0.324096 -0.002631 -0.200586 0.166955 0.155693 -0.309602 -0.172078 -0.532076 -0.365890 -0.104346 0.023687 -0.172399 -0.754136 -0.082523 -0.587047 0.361484 -0.019619 0.029772 -0.516971 -0.364475
like -0.472428 -0.164858 -0.159707 -0.321052 0.499163 0.196903 0.401613 -0.426249 -0.245319 -0.058238 -0.314851 -0.230013 -1.055064 -0.679813 -0.255294 -0.096564 -0.059075 -0.005476 0.556059 -0.305642 -0.169513 -0.596063 0.140793 0.007454 0.251159 -0.205241 0.069361 -0.735135 -0.389138 0.160066 -0.178102 -0.229206 -0.242326 0.159349 -0.270742 -0.092973 -0.584843 0.238760 -0.492839 -0.943583 0.231947 0.415712 -0.276864 -0.052940 -0.987214 -0.269132 -0.374181 0.002418 -0.386264 -0.268854
When 0.058306 -0.218449 0.165759 0.065275 0.404130 0.067092 0.009996 -0.153937 -0.329726 0.001881 0.130872 -0.688994 -0.745320 -0.005531 -1.002403 -0.755764 -0.034566 -0.276571 0.354853 -0.528623 0.092637 -0.311419 -0.325611 0.035337 -0.437090 0.037065 -0.458130 -0.462343 -0.041694 -0.000033 -0.201882 -0.221012 -0.072615 0.113289 0.002988 0.287261 -0.160530 -0.006272 0.095225 -0.882066 -0.218964 -0.114966 -0.490787 -0.399149 -0.561982 0.117351 -0.001762 -0.159841 -0.690306 -0.434600
woke -0.393967 -0.134542 0.206729 -0.209457 0.957956 -0.116489 -0.354965 -0.270231 -0.375377 0.291668 -0.069412 -0.552083 -0.464465 0.316570 -0.388330 -0.195624 -0.130071 -0.387334 0.212850 0.165546 -0.100254 -0.264756 -0.442803 0.375732 -0.155465 -0.261904 -0.152319 -0.388672 -0.405890 -0.246562 -0.308661 -0.579260 -0.189917 -0.746123 0.157021 -0.132013 -0.249658 0.141851 0.045680 -0.637411 0.189585 -0.276494 -0.601970 -0.003888 0.079289 -0.387931 -0.127435 -0.217264 -0.521710 -0.142609
up -0.113755 0.211998 -0.241478 -0.315898 0.807408 -0.331078 -0.288573 -0.421090 -0.167754 0.319051 -0.355916 -0.406049 -0.513453 0.230631 -0.291974 -0.094032 -0.392573 -0.076754 0.657124 -0.315920 -0.116079 -0.460783 -0.579320 0.436554 0.101346 -0.290816 -0.151359 -0.541372 -0.231821 0.503567 -0.519866 0.003059 -0.469526 -0.414353 0.082946 0.098982 -0.665775 -0.271578 0.048578 -0.402409 -0.357316 -0.452521 -0.419526 -0.318681 -1.067974 -0.004776 -0.358235 -0.057040 -0.653370 -0.146063
dull -0.127886 0.460632 -0.497274 -0.069764 0.217799 0.172186 -0.281960 -0.551443 0.138949 0.462313 -0.471741 -0.457787 -0.355642 0.409297 -0.358426 -0.218248 -0.106564 -0.165208 -0.159709 0.552992 -0.131250 0.287543 -0.465557 -0.019682 -0.016221 -0.270403 -0.224925 -0.498477 0.423039 0.353838 -0.191523 -0.344823 -0.347789 -0.128609 -0.389026 0.442131 -0.390043 -0.120023 0.521507 -0.424302 -0.044334 0.306839 -0.323962 -0.110127 -0.720026 0.395525 -0.459469 -0.169086 0.005995 0.294337
gray 0.317168 0.092532 -0.414901 0.166237 0.731841 -0.091139 0.171023 -0.824633 0.164134 -0.296052 -0.075182 0.170204 -0.924606 -0.154298 -0.254868 0.231745 -0.075327 -0.128054 -0.056825 -0.014610 -0.247524 -0.279392 -1.039715 0.061667 -0.191280 0.012631 -0.158994 -0.516135 0.127142 0.046868 0.158909 -0.321174 -0.508979 0.254535 -0.166999 -0.058680 -0.154743 -0.120737 -0.023400 -0.239456 0.238858 0.206724 -0.560219 0.064740 -0.959720 -0.329083 -0.702818 0.339825 -0.566212 -0.120479
Tuesday 0.067097 0.356578 -0.353866 -0.032948 0.280458 0.239593 -0.004876 -0.112929 0.077417 -0.367036 0.052281 -0.037913 -0.961936 -0.163183 -0.297004 -0.342451 -0.478021 -0.515956 0.276207 0.082551 -0.650009 -0.585540 -0.317449 -0.293122 -0.034164 -0.162862 0.178728 0.029974 -0.236831 0.023779 -0.101059 -0.312406 -0.713168 0.105581 -0.345282 0.311478 0.077776 -0.432426 -0.066906 -0.248045 0.394165 0.272331 -0.577674 0.154920 -0.167454 0.346014 -0.547694 0.279207 -0.207645 -0.277285
our -0.078114 -0.179042 -0.074233 -0.247674 0.761984 0.210113 -0.071370 -0.518768 -0.202408 -0.451293 -0.258349 0.035397 -0.427077 -0.314867 -0.687544 -0.375714 -0.404635 -0.230790 0.450551 -0.089732 -0.522964 0.302746 -0.512917 -0.369338 0.145301 0.347856 -0.390800 -0.455164 0.222040 0.019196 -0.022850 -0.454006 -0.272111 -0.867068 -0.309381 0.282269 -0.201359 -0.185290 -0.021746 -0.348669 -0.153274 0.198087 -0.626865 -0.051440 -0.076709 -0.095839 -0.538496 -0.044014 -0.607191 -0.408064
story -0.446750 -0.204729 -0.066149 -0.309282 0.777868 0.382945 -0.098103 -0.184739 -0.119262 -0.122525 -0.299154 -0.542066 -1.203557 -0.047436 -0.654897 -0.389172 -0.205308 0.002758 0.148511 0.057835 -0.223375 -0.224423 -0.267964 0.189707 -0.370257 0.050699 -0.115819 -0.511345 -0.401182 -0.656436 -0.233374 -0.514943 -0.076856 -0.423626 -0.102213 -0.132972 0.098850 -0.511534 -0.200747 -0.316617 0.292737 -0.097383 -0.233829 -0.285663 -0.138067 -0.257419 -0.520394 0.313153 -0.333787 -0.266600
starts 0.113208 -0.152298 -0.110538 -0.084018 0.433026 0.128779 -0.315188 -0.385361 0.059534 0.303596 -0.161946 0.043731 -0.191677 0.007523 -0.694617 -0.417637 -0.120412 -0.084343 0.160700 -0.012353 -0.281327 -0.397822 -0.545322 0.547908 -0.038927 0.208979 -0.320344 -0.403117 -0.342155 -0.229979 -0.235568 -0.288671 -0.112605 0.011835 0.025196 0.014860 -0.235193 -0.095067 -0.399745 -0.518943 -0.155486 0.314969 -0.428175 -0.361732 -0.587052 0.499275 -0.485248 0.136462 0.027467 0.152342
nothing -0.580750 0.084761 -0.732257 -0.117241 0.314756 0.469545 -0.108747 -0.566844 -0.318778 -0.124392 -0.241317 -0.202855 -0.911154 -0.254157 -0.926610 -0.478637 -0.150259 -0.592589 0.221927 -0.233430 -0.158870 -0.398811 -0.376409 0.489757 -0.456123 -0.211956 -0.512802 -0.489476 -0.307017 0.025163 -0.089200 -0.467991 0.049022 -0.336657 -0.091925 0.236004 -0.563255 0.471122 0.168264 -0.515885 -0.386628 -0.081153 -0.663225 0.042795 -0.509290 -0.186284 -0.277429 -0.752422 -0.525694 -0.121866
cloudy 0.112260 -0.133818 0.061272 -0.389379 -0.005916 0.266095 -0.139894 -0.165408 -0.356713 0.421211 -0.375073 -0.202457 -0.632207 0.552763 -0.605937 0.173556 -0.248190 0.161887 0.668950 -0.097129 -0.105863 -0.073308 -0.319738 -0.351756 0.052399 0.365371 -0.172522 -0.399217 -0.147121 0.050120 0.346499 0.235511 -0.093790 -0.481948 0.313588 -0.418407 -0.047950 -0.544265 -0.152051 -0.790373 0.425718 -0.479720 -0.290501 -0.104652 -0.195653 -0.418571 -0.314694 0.095488 -0.292887 0.111057
sky 0.173015 0.273376 -0.076425 -0.298459 0.408420 0.430343 -0.285601 -0.334249 -0.462918 0.429084 -0.551011 -0.327414 -1.098663 0.398926 -0.389475 0.053933 0.184866 -0.259286 0.112688 -0.129612 -0.121895 -0.385917 -0.130061 0.186171 -0.298195 -0.078046 -0.192262 -0.615578 -0.191979 -0.359400 0.284341 -0.176633 -0.071479 -0.424036 -0.291699 -0.056607 -0.052960 0.004838 -0.033058 -1.174383 -0.186902 -0.415048 -0.573465 -0.499341 -0.338198 0.019265 -0.739128 0.067017 -0.385566 0.118892
outside -0.139193 0.026504 0.183828 -0.370309 0.350024 0.283092 -0.516662 -0.016258 -0.171772 0.098173 -0.258156 -0.335786 -0.467905 0.255682 -0.281552 0.194334 0.019570 -0.333056 0.723144 -0.533779 -0.165379 -0.792368 -0.672406 0.305139 -0.139540 0.282185 -0.357032 -0.461099 -0.241195 -0.307450 0.211918 -0.186753 0.109022 -0.318894 -0.240746 0.086265 -0.650016 -0.462131 0.062814 -0.892420 0.176780 -0.469916 -0.461902 0.034616 -0.500827 0.104783 -0.202131 -0.426954 -0.716077 -0.535503
suggest -0.255058 0.027193 -0.594622 0.093368 0.381999 0.302954 0.035360 -0.302332 -0.236150 -0.385333 0.042611 -0.506949 -0.251990 -0.097692 -0.486709 -0.712977 0.183628 -0.747815 0.347445 0.205615 0.253058 -0.023527 -0.471621 -0.273266 -0.025623 0.346918 -0.600258 -0.385014 0.160093 0.027816 -0.393186 0.068687 -0.134652 0.095196 -0.315682 0.096813 -0.302296 -0.233164 0.251102 -0.513995 0.277788 -0.417032 -0.805956 -0.058194 0.040468 -0.178327 -0.066767 0.189000 -0.929605 0.129516
things -0.590684 0.178001 -0.435530 -0.297606 0.451124 0.736053 -0.225850 -0.243987 -0.090919 -0.067585 0.190364 -0.397505 -0.517389 -0.717931 -0.542693 -0.359997 -0.072953 -0.357326 0.427116 -0.136802 -0.379253 -0.177141 -0.456420 -0.153245 -0.176049 0.081379 -0.236909 -0.440825 -0.094298 -0.177723 -0.251307 -0.562117 -0.064139 -0.485092 -0.010195 -0.177044 -0.440000 0.160943 -0.292045 -1.004939 -0.149847 0.186476 -0.041783 -0.335904 -0.497389 -0.153113 -0.264587 -0.210160 -0.469774 0.009205
soon -0.126283 0.414129 0.108205 -0.191590 0.362842 0.243792 -0.167906 -0.265819 0.076354 0.385765 -0.364971 -0.593238 -0.743621 -0.239406 -0.595769 -0.615815 -0.107869 -0.262673 0.466017 -0.111476 -0.217338 -0.473324 -0.297432 -0.364964 -0.329056 0.053300 -0.562664 -0.424735 -0.405782 0.065366 -0.346379 -0.344510 0.168022 -0.041174 -0.462488 -0.270364 0.024979 -0.038255 -0.439069 -0.469329 0.238319 -0.187014 -0.677200 -0.573091 -0.082182 0.193852 -0.494813 -0.362368 -0.085979 -0.576627
happening -0.420483 -0.027825 -0.518754 0.203867 0.464007 -0.193700 -0.654486 -0.458304 -0.203617 0.246635 -0.159655 -0.175229 -0.980547 -0.122682 -0.757275 -0.348976 0.170183 -0.041300 -0.078028 0.271171 -0.459998 0.192638 -0.475995 0.232633 -0.356396 -0.042337 -0.257349 -0.506140 -0.365107 0.322961 -0.154573 0.002493 -0.238848 -0.777802 -0.419377 0.419687 -0.271070 0.108864 0.024236 -0.506995 -0.242214 0.209093 -0.061586 -0.190022 -0.262625 0.101101 0.226634 0.245765 -0.054815 0.111019
all -0.669660 0.078670 -0.668745 -0.475306 0.767699 0.213753 -0.628060 0.070182 -0.345656 -0.333226 0.272810 -0.299929 -0.801273 -0.300235 -0.704371 -0.441526 -0.257539 0.532324 0.814033 0.059988 -0.363240 -0.099464 -0.696794 -0.017528 -0.249125 0.001129 -0.250671 -0.485150 0.189733 -0.154668 0.102802 -0.089632 -0.306759 -0.553975 -0.380416 0.379527 -0.671605 0.207765 -0.268002 -0.482350 -0.352668 -0.159597 -0.537516 -0.545972 -0.446655 -0.188871 -0.269718 -0.269370 -0.407475 -0.112146
country -0.021248 -0.358157 -0.040542 -0.161849 0.421805 -0.037045 -0.461149 -0.301232 0.054229 0.090951 -0.115061 -0.442958 -0.367358 0.142944 -1.020114 -0.255333 0.312020 -0.295701 0.769036 -0.445365 -0.015693 0.132285 -0.149638 0.388878 -0.073249 -0.522981 -0.246112 -0.211571 -0.456017 -0.157310 0.273651 -0.723646 -0.280640 -0.455329 -0.533510 -0.386282 0.066585 -0.243552 0.047865 -0.677321 0.387511 0.162548 -0.086278 -0.289302 -0.213277 0.309671 -0.311345 -0.345514 -0.175189 0.067459
hummed -0.575714 -0.028781 -0.323813 0.232153 0.449296 -0.031738 -0.596743 -0.296480 -0.636554 0.269956 0.074431 -0.141820 -0.144938 -0.320687 -0.332461 -0.237774 0.119828 -0.055821 0.378471 0.314893 0.160001 -0.241489 -0.264695 -0.093549 0.046209 0.034709 -0.058616 0.024091 -0.462738 -0.223496 0.355770 -0.621461 0.168535 -0.481122 -0.217449 0.250056 0.138021 0.390002 -0.261891 -0.514835 -0.314060 -0.198045 -0.635047 0.078379 -0.444915 0.291104 -0.334065 -0.037271 -0.396295 0.012365
picked -0.290938 0.472226 -0.354839 -0.199874 0.453735 0.161467 -0.639732 -0.696979 -0.250675 0.881953 -0.052499 -0.465055 -0.368238 0.273289 -0.242533 -0.162306 -0.060005 -0.466879 0.641549 -0.056898 0.387133 -0.634403 -0.795307 -0.016711 -0.063027 -0.345870 -0.384108 -0.721966 -0.386934 -0.269782 0.006757 -0.581346 -0.674280 -0.668378 -0.066649 -0.322471 0.091595 -0.064682 0.192489 -0.338003 0.018944 0.338004 -0.420629 -0.751944 -0.679158 0.010469 0.237382 -0.718992 -0.837002 -0.394830
his -0.119566 -0.185209 0.254634 -0.561237 0.429890 0.292438 -0.199360 -0.535898 0.138296 0.392204 -0.491909 -0.085937 -0.744756 0.397071 -0.703216 -0.236628 -0.357038 -0.041307 0.550892 0.107867 -0.238315 -0.016074 0.024813 -0.196050 -0.014554 -0.593490 -0.139582 -0.979947 0.047649 -0.324911 0.126331 -0.749592 -0.595844 -0.441349 -0.117481 -0.352291 -0.678328 -0.386272 0.343547 -0.437795 0.180632 0.046352 -0.778171 -0.289157 -0.676515 0.379301 0.359095 -0.087863 -0.789354 0.313657
most 0.243848 0.164525 -0.171518 -0.372174 0.449427 0.175106 0.048556 -0.617027 -0.224877 0.035865 -0.079847 -0.524031 -0.733816 0.235626 -0.308414 -0.349891 -0.115852 -0.343191 0.620160 -0.234151 -0.308502 -0.167593 -0.437495 0.100741 -0.170670 -0.117913 0.138308 -0.255401 0.123975 0.002146 0.014299 -0.592870 -0.234121 -0.150043 -0.073905 0.052466 -0.732990 0.136625 -0.125580 -0.190967 -0.035538 0.125271 -0.221823 -0.416586 -0.610375 0.040318 -0.501107 0.126365 -0.637103 -0.360852
boring -0.422558 0.145521 -0.618192 -0.160471 0.568010 -0.176459 -0.051625 -0.029986 -0.213362 0.167212 0.248210 0.027401 -0.772120 -0.265472 -0.837775 0.036782 -0.244724 0.029995 -0.065744 -0.016996 -0.110248 0.086886 -0.470627 0.534655 -0.328846 0.297774 -0.471575 -0.068332 0.190962 -0.382405 0.078730 -0.584990 -0.196074 0.000182 -0.470519 -0.079334 0.130988 -0.400054 -0.370669 -0.471910 0.277391 0.243150 -0.426321 -0.365550 -0.625276 0.491831 0.065198 0.200625 0.001711 -0.317666
tie -0.116031 0.623930 -0.231326 -0.141500 0.761209 0.550570 0.029309 -0.248330 -0.429887 -0.166318 -0.106023 0.438879 -0.485069 -0.449065 0.019271 -0.033852 -0.096861 0.223127 -0.141556 0.022430 -0.365219 0.457711 0.169009 0.349406 -0.408600 -0.167030 -0.415393 0.094892 -0.289184 0.361633 -0.373437 0.333734 0.438399 0.213870 0.156766 -0.111321 0.216505 -0.426375 -0.058857 -0.350115 0.030915 0.504326 -0.533893 0.318777 -0.319444 0.111270 -0.174725 0.275979 -0.018080 0.209211
work -0.142315 -0.073494 -0.311814 -0.163848 0.309666 0.332781 -0.318342 -0.480775 -0.561349 0.313393 0.291301 0.028541 -1.199152 -0.083596 -0.653798 -0.298741 -0.184322 0.053016 0.218870 0.057699 -0.041253 -0.758332 -0.349715 -0.282157 -0.286113 0.001046 -0.369138 -0.344009 0.121303 0.151727 0.249474 0.012049 -0.162492 0.060048 -0.092344 -0.125078 -0.415072 -0.083682 -0.410571 -0.632476 -0.222500 0.188085 -0.432558 -0.726918 -0.402187 -0.170357 -0.437297 -0.177926 -0.211848 -0.571902
gossiped -0.038290 0.319327 0.071892 0.105917 0.235449 -0.126657 0.257054 0.245413 0.274070 0.249410 0.050518 -0.067236 0.024478 0.215434 -0.583491 0.401142 0.510306 -0.216743 -0.082841 0.326790 0.247060 -0.416135 -0.331054 0.495103 0.185104 -0.174529 0.470530 0.300670 0.255334 0.233654 -0.471469 -0.179427 0.285279 -0.283860 0.217939 -0.061328 0.123824 -0.189607 -0.484214 -0.098319 0.152862 0.164053 -0.016131 -0.017585 -0.077512 0.096281 0.035999 -0.211601 -0.127783 0.059465
happily -0.431848 0.245305 -0.284805 -0.521254 0.362992 -0.151387 -0.357488 -0.439745 -0.202372 0.405483 -0.432875 -0.109516 -0.600554 0.218599 -0.666820 -0.463307 0.178669 0.172299 0.604127 0.071932 0.059151 -0.503503 -0.155829 0.129538 0.183020 0.100015 -0.374518 -0.148007 -0.631042 0.310525 -0.074213 0.246204 -0.502643 0.013572 0.059790 0.055905 0.290830 -0.101832 0.118237 -0.339080 0.390405 -0.320841 -0.476422 -0.451895 -0.303525 -0.076311 -0.216415 -0.116324 -0.630950 -0.406128
wrestled -0.245066 0.383921 0.181658 -0.053218 -0.105164 0.225963 0.387694 0.372072 -0.052389 0.143973 -0.219136 0.135797 -0.567299 0.314947 -0.212482 0.338594 0.189529 -0.114404 0.788505 0.427904 0.294134 -0.340461 -0.319863 0.467248 0.054552 0.300930 -0.087707 -0.251326 -0.008406 -0.144155 0.158886 0.205686 0.284973 0.280705 -0.193613 -0.392881 0.001824 -0.006608 0.175864 -0.551612 -0.311253 -0.105214 -0.194761 -0.280082 0.317326 -0.111636 -0.205414 0.382021 0.241006 -0.385925
screaming -0.375329 -0.135546 -0.424762 -0.257610 0.442260 0.604400 -0.286059 -0.523531 -0.148603 0.355356 -0.301576 -0.409597 -0.224541 0.308715 -0.399470 0.106778 0.421371 -0.011051 0.142379 -0.057843 -0.054502 0.083349 -0.352653 0.225428 -0.125284 -0.104868 -0.135487 -0.119415 -0.491495 -0.275410 0.170408 -0.263530 -0.165541 -0.103101 -0.023496 -0.376115 0.174011 0.223007 -0.125655 -0.208470 0.233531 -0.351228 -0.841908 0.118141 -0.554017 -0.265590 -0.454641 0.132590 -0.354167 -0.412965
into 0.367038 0.089868 -0.135069 -0.672095 0.782490 -0.153286 -0.147819 -0.282175 -0.750754 0.113774 0.031485 -0.501017 -0.604834 0.107701 -0.467745 0.545796 -0.023709 -0.145610 0.344240 0.067658 0.492650 -0.405469 -0.259786 -0.133372 -0.125975 -0.111466 0.387743 -0.523928 0.076535 0.294994 -0.348303 -0.274554 -0.931459 -0.346149 -0.155290 -0.097500 -1.074131 -0.430010 0.309435 -0.579659 0.258699 -0.238914 -0.999180 -0.153774 -0.471834 0.186418 -0.163383 -0.212877 -0.761999 -0.440369
high -0.389205 0.068257 -0.311541 -0.722360 0.471298 0.420188 -0.327075 -0.583269 -0.153197 -0.052261 -0.235514 -0.347615 -0.851048 0.303756 -0.495795 0.407307 -0.831842 -0.049331 -0.032282 0.281383 0.377463 -0.234290 -0.527181 0.122079 0.214770 -0.303477 0.102620 -0.305789 -0.323111 0.126230 -0.239583 -0.321562 -0.482136 -0.583525 -0.404980 -0.495260 0.006588 -0.225672 0.324265 -0.718638 0.189147 -0.038382 -0.634394 0.126951 -0.522990 -0.201020 -0.016750 0.419406 -0.950957 -0.428833
chair 0.022754 -0.074485 -0.607236 -0.068903 0.297275 0.436549 -0.471960 -0.292492 -0.572388 0.507045 -0.538953 -0.572607 -0.565743 -0.228434 -0.202069 0.043263 -0.406435 -0.036099 0.343154 -0.685562 0.035225 -0.567454 -0.167759 -0.312696 0.084375 0.334076 0.212989 -0.215833 0.035354 0.367937 -0.101633 -0.364585 -0.170042 -0.341501 -0.224549 -0.423087 -0.457793 0.231886 0.390152 -0.556514 -0.210857 -0.049038 -0.611664 0.250488 -0.899272 -0.197249 -0.425904 0.410205 -0.545468 -0.483740
None -0.002278 0.232579 -0.144323 0.386042 0.671025 0.449095 -0.176394 -0.385888 -0.084961 0.545414 0.161951 0.296614 -0.108143 -0.094571 0.283795 -0.510982 -0.088684 0.436663 0.388575 0.072577 -0.076737 0.260792 -0.596892 0.183167 -0.365185 -0.272951 0.474372 0.069624 -0.332255 0.337963 0.432452 0.054218 0.240350 0.305196 0.084770 0.430142 0.194214 0.282199 0.383394 0.188215 -0.026730 0.329281 -0.119005 -0.118435 0.110491 -0.263944 -0.440281 0.547077 0.291225 -0.265347
them -0.319913 -0.083454 -0.059514 -0.276733 0.847767 0.556160 -0.565563 -0.435930 -0.207071 -0.017667 -0.426838 -0.496325 -0.707033 -0.193317 -0.314259 -0.315383 -0.389782 -0.079802 0.531661 -0.165264 -0.359856 0.113646 -0.521671 -0.068552 -0.344540 -0.315303 -0.140613 -0.397039 -0.265747 0.352475 -0.152383 -0.413551 -0.678176 -0.412129 0.010266 0.341798 -0.280878 0.028945 0.170343 -0.675486 -0.591119 0.179638 0.022424 -0.542929 -0.645884 -0.186071 -0.252220 -0.333967 -0.471511 -0.233225
noticed -0.138794 0.231428 0.411892 -0.315165 0.311937 0.172394 -0.521096 -0.183620 -0.172169 0.030893 -0.240766 -0.741890 -0.838041 -0.483573 -0.785083 -0.436565 -0.121698 -0.514277 0.263579 -0.043279 0.296972 -0.702314 -0.603217 0.307800 -0.128221 0.157065 0.071986 -0.410921 -0.617780 0.226924 -0.261482 -0.100958 -0.196871 -0.272700 -0.116156 -0.238625 -0.293751 0.170618 -0.531158 -0.438855 -0.260013 -0.093910 -0.362331 -0.115808 -0.729437 -0.209923 0.149404 -0.338388 -1.204369 -0.651256
tawny -0.079358 0.286163 -0.238642 0.281257 0.178978 0.169855 0.251636 -0.412032 0.044864 0.305888 0.112250 -0.065748 -0.424171 -0.203793 -0.348172 0.337752 0.128806 -0.312318 0.116777 -0.228347 -0.083338 -0.170360 -0.290000 -0.087032 0.250087 0.319962 -0.159495 -0.305887 -0.513707 -0.073733 0.643776 -0.431869 -0.192672 -0.185771 -0.011055 -0.124962 0.337628 -0.458004 0.540116 -0.442956 0.553616 0.052367 -0.442811 0.416432 0.138518 -0.131535 0.262731 -0.249918 0.156803 -0.312326
owl -0.559626 0.118405 -0.430221 -0.582764 0.398912 0.535241 -0.555438 -0.023749 -0.417087 -0.009742 0.024758 -0.546126 -1.209649 0.323946 -0.421288 -0.368945 -0.097928 -0.745684 0.206998 -0.404523 0.069820 -0.219345 -0.238611 -0.640809 -0.209676 0.088418 -0.753057 -0.119168 -0.074241 0.531289 0.032196 -0.590817 0.157218 -0.177938 -0.624262 0.144995 0.062737 0.097211 0.385503 -0.177143 0.044420 0.052391 -0.395255 -0.219437 -0.764869 0.088323 -0.330249 0.034802 -0.563873 -0.820202
flutter -0.137790 0.172627 -0.157116 -0.305147 0.375407 0.408864 -0.196145 -0.383016 0.198303 -0.303917 -0.279743 -0.192891 -0.603782 0.047466 -0.618867 -0.118613 0.312803 -0.047552 0.633422 -0.299393 0.039450 -0.345252 -0.244998 -0.080449 -0.175477 -0.252428 0.155826 -0.323843 -0.027590 -0.134703 -0.006440 -0.377206 -0.136312 -0.240156 -0.441658 0.023135 -0.004846 0.153563 -0.346525 0.076399 0.319259 0.353491 -0.022340 -0.200669 -0.527519 0.126565 -0.696026 -0.085851 -0.556338 -0.575431
past -0.206046 0.162724 -0.389703 -0.140066 0.219869 0.466719 -0.067549 -0.168204 -0.297000 0.352062 0.079448 -0.534419 -1.136095 0.455828 -0.207728 -0.214554 0.235790 0.271214 0.218810 -0.703682 -0.057636 -0.276913 -0.535376 0.238591 -0.431810 -0.052820 -0.387442 -0.638531 -0.507628 -0.012167 -0.327684 0.062372 -0.379713 -0.238564 0.041904 -0.809517 0.038167 -0.200472 0.294998 -0.466630 0.005998 0.048533 -0.854366 0.075509 -0.724775 -0.397328 -0.537043 -0.593496 -0.731077 -0.556341
window -0.662465 -0.062732 -0.329317 -0.394559 0.424723 0.470937 -0.349636 -0.094240 -0.534235 -0.071695 -0.564979 0.049070 -1.148270 0.039326 -0.341388 -0.556353 -0.026003 -0.524845 0.504293 -0.404418 -0.244080 -0.549951 -0.621273 0.284015 0.023221 0.250237 -0.150387 -0.312784 -0.268934 -0.044401 -0.081816 -0.277495 -0.264704 -0.445184 -0.068660 -0.269436 -0.173249 0.082491 -0.178300 -0.286548 -0.046212 -0.462310 -0.600763 -0.104339 -0.884305 -0.260312 -0.616961 -0.246871 -0.801507 -0.262105
At -0.421229 -0.090987 -0.453491 0.182269 0.169485 0.172065 -0.437063 -0.265445 -0.281267 -0.010610 -0.512551 -0.137390 -1.050890 -0.144388 -0.402744 -0.433433 0.475684 -0.822151 0.661170 -0.372657 -0.140655 -0.736464 -0.271463 0.051012 -0.487724 -0.179871 -0.035117 -0.062653 -0.125890 -0.263423 -0.015342 -0.063247 -0.851871 -0.011401 -0.235335 -0.069960 -0.462472 -0.443277 0.168998 -0.731841 -0.149142 -0.485107 -0.245798 -0.098630 -0.863594 -0.212371 0.019380 0.015914 -1.195003 -0.298858
half -0.596814 -0.043250 -0.430406 -0.472780 0.514944 -0.023568 -0.353007 -0.121354 -0.244282 0.149650 0.105891 -0.118720 -0.868946 0.103165 -0.668288 -0.529343 -0.260741 -0.121809 -0.019677 -0.285886 0.183104 -0.584839 -0.186036 -0.524788 -0.383460 0.210802 -0.607199 -0.429094 -0.339052 0.370065 -0.204074 0.044785 -0.433076 -0.626152 -0.488208 0.018973 -0.395050 -0.057631 0.119555 -0.738527 0.221734 0.400622 -0.619833 -0.152507 -0.064466 0.283685 -0.401573 0.398865 -0.208758 -0.497363
eight -0.453234 0.057576 0.263156 -0.326515 0.172662 -0.008671 -0.301112 -0.749583 -0.081925 -0.483563 -0.335170 -0.218374 -0.463619 0.239819 -0.376464 0.008333 0.433599 0.005791 0.090666 0.288233 -0.051116 0.031992 -0.806173 0.516783 -0.107902 -0.128602 -0.019834 -0.397794 -0.321946 0.085178 -0.118796 -0.403644 -0.325627 -0.650874 -0.202302 -0.457844 -0.411606 -0.033385 0.425513 -0.618308 -0.244706 -0.092413 -0.686397 -0.407137 -0.267323 0.173909 -0.394459 0.294301 -0.238168 0.109908
